#pragma once

/* AI Generated GRU Weights */

#ifndef MODEL_WEIGHTS_H
#define MODEL_WEIGHTS_H

#define SEQ_LENGTH 20
#define INPUT_SIZE 10
#define HIDDEN_SIZE 64
#define NUM_CLASSES 3

const float SCALER_MEAN[10] = { 10.665574302384568, 105.745869972941, -0.0591836895156677, 0.37290760900681885, -3.391580263825393, -0.08079083375613075, 1.6626078132927449, 0.0008455944529003889, 0.5446473871131405, 667.081346186369 };
const float SCALER_STD[10] = { 52.94123101233701, 524.0722723085762, 2.90130187865974, 4.05548828408638, 59.68183518858063, 340.35982474907564, 47.68875445322068, 25.28926510947483, 0.4980026213023201, 1132.8701438708442 };

const float gru_weight_ih_l0[192][10] = {
    {0.020338641, 0.008892, -0.15722829, 0.13472901, 0.27912658, -0.112543635, 0.036334038, -0.13400953, -0.15810299, -0.020384066},
    {0.12009718, -0.01532947, -0.082852535, 0.2031401, 0.109511375, 0.08631281, 0.15001154, -0.0051404843, -0.062704794, 0.026007691},
    {0.038339946, -0.02365589, -0.008516442, 0.12393607, 0.12025634, -0.0067443037, -0.059571374, 0.0378619, -0.072871625, 0.07112453},
    {0.09444548, 0.06636883, -0.24756573, 0.07342251, -0.26627982, 0.23001838, -0.06759979, -0.04825878, -0.15153272, 0.09863601},
    {0.23236738, 0.056161687, -0.21419717, 0.09722445, 0.2868193, -0.063697256, 0.046223253, -0.018591296, -0.03226374, 0.30720493},
    {-0.03412729, -0.07677419, -0.1774349, -0.09737458, 0.19060758, -0.027677894, 0.1546739, 0.045181457, 0.02608021, 0.26100338},
    {-0.120016605, 0.01772581, -0.15254357, 0.0483783, 0.31897357, -0.053636983, 0.09065357, -0.0002710513, -0.08790467, -0.1020813},
    {0.011531937, -0.032111358, -0.030208189, -0.05282057, -0.046856526, 0.19401446, -0.0014485625, 0.07999086, -0.08988858, 0.08714021},
    {0.07984007, 0.12762171, -0.25956634, 0.021610146, -0.3552061, 0.12772265, 0.14354299, 0.025196638, -0.06652143, 0.20956458},
    {0.2289565, 0.0055076117, -0.15236244, -0.04020001, 0.16219726, -0.051243197, 0.0083957715, 0.034507032, -0.084328674, 0.14549395},
    {0.033321004, 0.032113962, 0.014430327, 0.12276397, -0.13720724, -0.0732951, -0.019263798, -0.1489172, -0.14588203, 0.1912821},
    {-0.07038578, 0.0057127597, 0.033559646, 0.07496709, 0.17923051, -0.07538184, -0.054525662, -0.1226222, -0.15434827, 0.1691004},
    {0.10149264, 0.07345302, -0.02032011, 0.046357002, -0.18516475, 0.04104208, 0.16352253, -0.006630475, -0.059233017, 0.20522603},
    {0.01382989, -0.037063524, -0.17398857, -0.15946667, 0.024654761, 0.009305717, 0.14434174, -0.059190165, -0.0009798376, 0.28280786},
    {0.29489103, 0.20114546, -0.107036196, 0.22187771, 0.28298458, -0.14429693, 0.097826414, -0.0123384725, -0.23506995, 0.04622731},
    {-0.03494421, 0.12711547, -0.12677932, 0.18080305, 0.42448965, -0.0150544625, 0.18521336, 0.11456483, -0.18047726, -0.09931031},
    {-0.16627125, 0.07586623, -0.22330247, -0.18843852, -0.252032, 0.10277029, 0.16068017, 0.04005229, -0.12914275, 0.32102197},
    {0.039040715, 0.10310293, 0.016119963, 0.052187912, -0.21977842, 0.0026493496, 0.1427555, 0.04167543, 0.0215248, 0.1986293},
    {0.14437018, 0.102471374, -0.13456216, 0.030592883, 0.11491568, 0.042241167, 0.07659935, 0.055177815, 0.049678028, 0.08875612},
    {0.09918245, 0.24068446, -0.057110664, 0.25747067, -0.0254642, -0.06770651, 0.0705713, 0.057251845, -0.011882745, 0.02987064},
    {0.16583025, 0.2047057, -0.047919888, 0.18270418, -0.43611598, 0.1729667, 0.032910425, 0.11950247, -0.07599226, 0.10026556},
    {-0.034421287, 0.037779715, -0.12752984, -0.07688854, -0.19831713, 0.01124188, -0.104981095, 0.01394046, -0.029794162, 0.19324192},
    {0.06785813, 0.10825906, -0.22322038, 0.022665903, -0.22992948, 0.2099265, 0.18769184, 0.06306025, -0.009605026, 0.27281195},
    {0.1382517, 0.17269015, -0.041739147, 0.2095299, -0.021296099, -0.077568464, 0.12565404, -0.12630762, -0.04245231, 0.22865981},
    {0.06411571, 0.15649973, -0.044577897, 0.16197763, -0.010314927, 0.10496479, 0.1458459, -0.14610837, -0.18983395, 0.16034774},
    {0.082838394, -0.099443525, -0.038574938, 0.018083306, -0.01211971, -0.075621, 0.010566181, -0.2197555, -0.046823367, 0.21596955},
    {0.08248619, 0.15270448, -0.051066615, -0.023376549, 0.105019264, -0.034556553, 0.011309271, -0.0011860095, -0.21034545, 0.084912494},
    {0.06830395, -0.049211692, -0.061886363, 0.044198383, -0.43615398, 0.2029922, 0.05764455, 0.017419484, -0.09592725, 0.11390751},
    {0.10240657, 0.15134043, -0.10721484, 0.17771934, -0.05291107, 0.092215896, -0.021658083, 0.028005637, -0.05518751, 0.03891531},
    {-0.07760203, -0.01506898, -0.20767626, -0.06428115, 0.16122277, 0.2515661, 0.11017667, 0.18566331, -0.005180744, 0.14554182},
    {-0.027045624, 0.043364637, -0.016345572, -0.07231679, -0.034913912, 0.15820737, 0.015834939, 0.23476909, 0.15425158, 0.2956531},
    {0.20877215, 0.055693958, -0.09340494, -0.013976207, -0.071859695, 0.028331572, 0.04809605, -0.044316784, -0.16916965, 0.08849526},
    {-0.06706304, 0.089328095, -0.11343616, 0.14120702, -0.139578, 0.14071268, 0.06034204, 0.035848096, -0.075483896, 0.1563055},
    {0.09793746, -0.087087765, 0.03370743, -0.011202593, -0.19793813, 0.05192138, 0.04593344, -0.08229712, -0.17345804, 0.19344994},
    {0.23077914, 0.12513986, -0.07414522, 0.1489389, 0.29291162, -0.07386626, 0.04967321, -0.12449942, -0.19393001, -0.06586132},
    {-0.11280666, 0.023657732, -0.2705123, -0.07327498, 0.12153177, 0.037153803, -0.051694233, 0.2114314, 0.010110289, 0.21450847},
    {0.095353246, 0.13508306, -0.03708831, 0.106312625, 0.18425986, 0.019544665, 0.09366289, -0.16696604, -0.26402637, 0.047995623},
    {0.101005405, -0.013028779, 0.05694396, -0.011479329, -0.11121571, 0.017333386, 0.06730724, 0.03153866, -0.13149531, 0.1218276},
    {0.009177243, -0.15922289, 0.17137721, 0.058392957, -0.0046791495, -0.06952155, -0.02840857, 0.0004686508, -0.13119605, -0.030363945},
    {0.14420006, 0.16769093, -0.20431016, -0.014376626, -0.09305672, 0.09953558, 0.039067462, 0.16666412, -0.060842928, 0.12341175},
    {-0.077125646, -0.035396162, 0.049872153, 0.10351069, -0.06838837, 0.041398004, 0.06904014, 0.1388602, 0.01421146, 0.28075662},
    {0.13752389, 0.010914409, -0.14743814, 0.042277943, 0.08037038, 0.10307659, 0.14952764, -0.0862198, -0.27178225, 0.017739499},
    {0.0005924307, 0.09741167, 0.013391269, 0.018818462, -0.1041111, -0.09549156, 0.16904429, -0.17012691, -0.25391275, 0.07136874},
    {0.074845046, -0.072756395, 0.006179913, 0.07587729, -0.03829036, 0.14550461, 0.12865168, -0.048608854, -0.10128079, 0.3209153},
    {0.1103188, -0.08439197, -0.110697925, -0.099032134, -0.088343434, 0.17924109, 0.17743813, 0.013913152, -0.057653002, 0.14237483},
    {0.060093705, -0.092739046, -0.07977415, 0.034242857, -0.49240693, 0.23055212, -0.018802071, 0.15268952, 0.01731886, 0.17562686},
    {0.019571958, 0.078531615, -0.29594535, 0.1257226, -0.5633895, 0.10764767, -0.011132334, 0.0667163, 0.05112045, 0.21281464},
    {0.14403847, 0.07690721, 0.00079744007, -0.03545646, -0.08838899, 0.18957104, 0.057962168, -0.04806984, -0.105803944, 0.14928733},
    {0.095195316, -0.0048137833, -0.21829417, -0.019421555, 0.13570765, -0.020565784, 0.083956555, 0.061989482, -0.08608717, 0.26233333},
    {-0.09338695, -0.021080427, 0.0109572485, 0.09470269, -0.0102842115, -0.05538056, 0.19808552, -0.06855081, -0.087038845, 0.25540566},
    {-0.15736912, -0.0007507338, 0.17769991, -0.12399063, 0.2054505, 0.057475388, 0.12733036, -0.044413406, -0.006688142, -0.12615679},
    {0.084853485, 0.150954, -0.04293263, 0.16236432, 0.22100164, 0.024862653, 0.17460044, 0.03555064, -0.08759132, 0.15531516},
    {-0.01674302, 0.052597485, -0.20359579, -0.08672007, -0.13307676, 0.06687936, -0.06323699, -0.012864585, 0.060820937, 0.07317783},
    {-0.01397165, 0.047146536, -0.1416167, -0.03292362, 0.104788445, 0.13550748, 0.047176953, 0.14789648, -0.15757251, 0.27551234},
    {0.06282182, 0.08044391, -0.28831875, -0.14565258, -0.23817846, 0.2404169, 0.034838174, 0.071783245, -0.050015707, 0.3692969},
    {-0.0018211656, 0.098745376, -0.09953545, -0.06640117, 0.3711667, 0.035333406, -0.00063590106, 0.1643954, -0.20122865, 0.23620076},
    {0.12032757, -0.016488727, -0.08124231, 0.02812079, 0.041056704, 0.06732717, 0.21527384, 0.09381439, -0.0866479, 0.08623572},
    {-0.080073826, -0.03008321, -0.10609617, -0.11439305, 0.15951122, 0.046353478, 0.03266655, 0.12528522, -0.04938951, 0.10774376},
    {-0.013028627, 0.103650875, -0.07009038, 0.07777176, -0.21742906, 0.21649215, 0.0020503667, 0.1455243, -0.19924535, 0.24222927},
    {0.21102409, -0.031138802, -0.103326656, 0.069260634, 0.07627086, -0.08576375, -0.02390487, -0.058433946, -0.2934921, -0.04235519},
    {-0.024811596, -0.08651618, -0.20682171, 0.099144086, -0.22678779, 0.12321559, 0.1089894, 0.09039601, 0.08745072, 0.34956938},
    {0.15084285, 0.019615302, 0.014659732, -0.01361477, 0.17169969, -0.06749449, 0.10694468, -0.119314365, -0.19034706, -0.12655792},
    {0.16864583, 0.111591004, -0.09766465, 0.017650772, -0.3558045, -0.11381166, 0.18090042, -0.14905067, -0.12567742, 0.16914918},
    {0.15833539, 0.18619977, -0.3130628, 0.031629693, -0.37597075, 0.07815002, -0.048202183, 0.036034726, 0.111670226, 0.24281207},
    {0.061934944, -0.12189156, 0.13899495, -0.10682965, -0.46881202, -0.11419783, -0.05926045, -0.060960256, 0.040984314, -0.13660298},
    {-0.11302152, -0.07311269, 0.0041659893, -0.044764534, -0.032569487, -0.05390997, -0.0034459713, 0.094674535, 0.19416168, -0.18887994},
    {-0.11655751, -0.1454137, -0.35846514, -0.22801983, -0.3825716, 0.1879133, -0.12657325, 0.12196886, 0.20676868, -0.14919463},
    {-0.029672598, -0.12981859, 0.07132176, -0.14517008, 0.21114273, 0.16813757, 0.10738723, -0.043551754, -0.09027575, 0.045521617},
    {-0.1326863, -0.13403669, 0.23865166, 0.17679189, -0.47845522, -0.03719983, 0.025930589, -0.0696811, 0.12934315, -0.15009029},
    {0.01564998, -0.067253806, -0.055562373, -0.11684546, 0.17912857, 0.056588214, 0.0023935637, 0.11208551, -0.04470563, -0.17510663},
    {0.079486586, -0.09164289, -0.0009556712, -0.113809876, -0.69641405, 0.001810316, -0.14939874, 0.05698709, -0.062779784, -0.0013195731},
    {0.015823433, 0.02465175, -0.09137375, 0.1030419, 0.044623636, 0.02686439, 0.0752147, -0.105219185, 0.06623831, -0.23879996},
    {-0.2563155, -0.15603717, -0.2647755, -0.46377432, 0.39913234, 0.1654348, 0.039143335, 0.14726351, 0.26882583, -0.46754867},
    {-0.0079366565, -0.019203896, 0.11022783, 0.018277334, -0.48647726, -0.045481656, 0.023574257, -0.014944183, -0.061763044, -0.34899104},
    {0.07719922, -0.08718871, 0.20637704, -0.034265827, 0.11689006, -0.06331708, 0.059012633, 0.11190827, -0.09451872, -0.25907436},
    {0.06118607, 0.015693458, 0.028935816, 0.03200459, -0.0322868, -0.06674447, 0.027256, -0.07302403, -0.07912649, -0.14287},
    {0.007284508, -0.130767, -0.07461357, -0.17025805, -0.0015711032, -0.0323978, 0.06855029, 0.035577275, -0.04976636, -0.05057464},
    {-0.020297784, -0.07946655, 0.15718912, 0.048383348, 0.15923305, -0.12634163, -0.12839992, 0.0929201, -0.12923747, -0.20602348},
    {-0.1395965, 0.0029313585, -0.12464136, -0.08439702, -0.40091088, -0.011499628, -0.035846602, -0.025959952, 0.09956698, -0.19992635},
    {-0.07960093, -0.07376901, 0.023792092, 0.13270894, -0.4896628, -0.19407144, 0.013487667, 0.0593507, -0.014438673, 0.0066436967},
    {-0.23340093, -0.1019158, -0.24491967, -0.030047964, 0.13262564, 0.34661162, 0.042466246, -0.10109997, 0.2688202, -0.21041907},
    {-0.05322984, -0.03473467, 0.1514226, 0.26904592, 0.124400005, -0.07588097, 0.04981675, -0.15749164, 0.16287532, -0.34843647},
    {-0.27663726, -0.22165252, -0.16048896, -0.29716352, -0.18730977, 0.14997205, 0.026531976, 0.17340802, 0.25153854, -0.16635753},
    {-0.2343586, -0.1546383, 0.14281045, 0.07939246, -0.03025901, 0.06883715, 0.030101348, 0.18977907, 0.09498157, -0.11723119},
    {-0.2034845, -0.30139983, -0.4658109, -0.53409046, 0.42478028, 0.24462387, -0.10321241, 0.040215243, 0.24640207, -0.25570193},
    {-0.023213599, -0.07049617, 0.057086203, -0.18586034, -0.06367027, -0.16706622, -0.1032667, 0.037888452, 0.050946772, -0.20943125},
    {-0.09465802, -0.0024451704, -0.09034563, -0.29692703, -0.17231207, -0.058959655, -0.026266823, -0.051838055, 0.05564663, -0.06418881},
    {-0.07491351, -0.088126585, 0.21153675, -0.018604362, -0.104120195, -0.008421969, -0.094901584, -0.051149484, 0.02935155, -0.13184546},
    {-0.027986106, -0.07668552, -0.15346874, -0.22429952, 0.074034676, 0.25205743, -0.013307119, 0.09006647, 0.16155647, 0.011529052},
    {-0.20070927, -0.09014354, 0.051476937, -0.07067248, -0.0438978, -0.17969568, -0.16597702, 0.009076894, 0.15128735, -0.091470726},
    {-0.14187759, -0.076190606, -0.26592484, -0.13023578, 0.039332964, 0.26836845, -0.13729379, 0.19248532, 0.29229864, -0.29904073},
    {0.0049858815, -0.17798808, 0.33740973, 0.25687304, 0.26565525, -0.2665359, -0.0908952, -0.0635574, 0.16634488, -0.3350545},
    {-0.21672627, -0.27736482, -0.023462532, -0.28105018, -0.15041836, -0.1520431, 0.054023746, 0.13976118, 0.15313935, -0.3061339},
    {0.012559563, 0.020358603, -0.1261376, -0.21789876, 0.17081276, 0.16511445, -0.012477724, 0.028411482, -0.063942805, -0.196537},
    {-0.1015746, -0.033992354, -0.13993412, -0.43239808, 0.22638921, 0.28685844, -0.057660792, 0.12251314, 0.083756626, -0.1844618},
    {-0.06637388, -0.09083753, 0.028283847, -0.2001313, -0.1509351, -0.16338627, -0.10874053, -0.018185124, 0.20994158, -0.061423633},
    {-0.10826213, -0.07274654, -0.06892639, -0.073872, 0.19704165, 0.05357233, -0.04200898, -0.042379793, 0.081391245, -0.26321828},
    {-0.051282786, 0.08170136, 0.16480963, -0.016303634, 0.091607444, -0.09813862, -0.051715247, -0.13123572, 0.10443499, -0.3337308},
    {-0.17180033, -0.1148302, 0.12109731, -0.098724596, -0.39322078, 0.06336173, -0.19189754, 0.012330329, 0.034515392, 0.031065451},
    {-0.2440767, -0.07470055, -0.080425344, -0.3076082, 0.13559519, 0.28867945, -0.2716385, 0.069850884, 0.24457406, -0.29134846},
    {-0.06548156, -0.19524841, 0.0029622654, -0.2389905, -0.315945, -0.21766822, -0.021366302, 0.12057136, 0.04902692, -0.14799543},
    {-0.0075519574, 0.08888566, -0.1930961, 0.03425267, 0.17936668, -0.17108434, -0.034142114, 0.111056544, 0.011535706, -0.18010598},
    {-0.18740737, -0.07454875, 0.014496969, -0.075247616, 0.14018439, 0.1630426, 0.083750814, 0.10736054, 0.24760278, -0.06891699},
    {-0.1923893, -0.20037389, -0.13173309, -0.5823736, 0.21627432, 0.19160381, -0.0991596, -0.0045722667, 0.19118358, -0.3709305},
    {-0.028252628, 0.040407788, 0.04332943, 0.10186001, -0.1790241, -0.019944327, 0.043433703, -0.0519913, -0.05321444, -0.09463872},
    {-0.0124498075, -0.14781737, -0.15558223, -0.07134951, -0.20638107, 0.20700668, -0.008060915, -0.101818815, 0.25883013, -0.2516085},
    {-0.037057333, -0.15196063, 0.07195067, 0.13705845, -0.24492648, -0.09917442, -0.042775184, -0.049138315, 0.1897954, -0.09049584},
    {-0.006726888, -0.108928494, 0.018261392, -0.16499285, 0.013408117, 0.10301636, 0.10403221, -0.026785554, 0.033150546, -0.246188},
    {-0.06348586, -0.1437459, 0.023933185, -0.1518143, -0.095563106, 0.12408227, -0.11156894, 0.044868596, 0.032557294, -0.26338622},
    {-0.27372336, -0.19191054, -0.26990032, -0.5151481, 0.43540764, 0.21186182, -0.10419972, 0.026784278, 0.28338173, -0.29972976},
    {-0.103056364, -0.19822791, -0.3434927, -0.41274625, 0.327042, 0.2925225, -0.091822006, -0.08482027, 0.17431484, -0.32920444},
    {0.042095687, -0.17728126, 0.072837315, 0.17099978, -0.10523453, 0.10438885, 0.10415939, 0.044217475, -0.036110144, -0.14770024},
    {-0.1803209, -0.07983795, -0.0010114764, -0.15866856, -0.16438083, 0.131727, -0.04564538, 0.1272252, 0.2713399, -0.26156834},
    {-0.20535707, -0.12739357, -0.13842505, -0.05501612, 0.13992839, 0.033641074, -0.06514232, -0.038501255, 0.09712449, -0.22734003},
    {0.009934725, 0.14151728, 0.0029580803, 0.023938924, -0.20363729, -0.085895576, 0.022961745, -0.04000246, -0.018653132, 0.19964771},
    {-0.19960266, -0.18491371, -0.048268985, -0.24446544, -0.0022360794, 0.24934502, -0.085001394, 0.15335485, 0.29043972, -0.16632868},
    {-0.08224902, -0.079575874, -0.12570809, -0.24103604, 0.047095753, 0.003429145, -0.21152325, 0.14366919, 0.043596774, -0.28916162},
    {-0.10062653, -0.057211403, -0.073164284, -0.03923651, -0.060384046, 0.16595566, 0.011214598, 0.11513036, 0.016690394, -0.28649265},
    {-0.23426415, -0.2903194, -0.11531184, -0.36557657, 0.17609668, 0.22319491, 0.021700207, 0.05923104, 0.10774656, -0.30982816},
    {-0.045585077, 0.026531234, -0.04906626, -0.2538176, -0.43181768, 0.070836194, 0.012987842, 0.12842996, 0.07473131, -0.11055036},
    {-0.0740677, -0.20700853, 0.0858933, 0.04266842, 0.17829895, 0.26447818, 0.15184027, 0.1168967, 0.046090294, -0.017267987},
    {-0.08525463, -0.28282425, 0.024448657, 0.12854545, 0.025734622, 0.17330149, -0.031061664, 0.13304174, 0.24748835, -0.30960768},
    {0.027574506, -0.12104061, -0.013105646, -0.082199484, -0.154555, 0.006882375, -0.022605505, -0.098863676, -0.024734832, -0.24313009},
    {-0.06444705, -0.22034198, -0.04121508, -0.007442233, -0.24369884, -0.12798639, -0.0218167, 0.06933774, 0.08922975, -0.30480167},
    {-0.0008821198, -0.16852501, -0.16514325, -0.4612813, 0.29556528, 0.13839102, -0.040619135, 0.07080177, 0.19580953, -0.38657808},
    {-0.28915036, -0.29504573, -0.302321, 0.01249332, 0.06274661, 0.19616263, -0.16667528, 0.0834715, 0.21633331, -0.13496761},
    {-0.18437742, -0.08863144, -0.0066084755, 0.10420982, -0.40792087, 0.008837179, -0.082483925, 0.05168199, 0.08534695, -0.1493217},
    {-0.13182963, -0.16177388, -0.15245157, -0.42951682, 0.33880284, 0.5389099, -0.17980994, 0.022309035, -0.0015804421, -0.43900397},
    {0.014964536, -0.11914364, 0.003448423, -0.07777498, -0.513302, -0.026053159, 0.10594346, -0.060015284, 0.108222485, -0.015690062},
    {0.123813435, 0.15350771, 0.10397601, -0.023476478, 0.273783, -0.10769578, 0.07347413, 0.040788576, 0.116776936, 0.04490444},
    {-0.08239572, -0.018566715, -0.1386755, -0.09956368, -0.15779096, 0.124771945, -0.02162619, 0.08406789, 0.06090002, 0.17811233},
    {-0.16847052, 0.008411892, 0.08466195, -0.018179875, 0.23975073, 0.24160022, -0.11185273, -0.049249157, 0.04115312, 0.20745514},
    {-0.0037168993, 0.12533002, -0.058888342, 0.024704397, 0.24588054, -0.02868726, 0.09128195, 4.546962e-05, 0.04397121, -0.25706515},
    {-0.06728572, -0.039123047, -0.07446388, 0.018814886, 0.41539747, 0.25980404, -0.108138986, -0.029601293, 0.022960108, 0.14046875},
    {-0.006452204, 0.14691748, -0.025458133, 0.14846681, 0.5710773, 0.090942115, -0.06448042, -0.026711766, 0.0051474697, -0.01258511},
    {0.072387, -0.058596954, -0.16826534, 0.059193425, -0.16709797, -0.037544984, 0.06270361, -0.14712125, 0.139149, 0.18052283},
    {-0.013842289, -0.2078654, 0.011169092, -0.26276806, 0.101163685, 0.06964311, 0.086907074, 0.096898034, 0.12288549, 0.18603325},
    {0.06812701, 0.015199559, -0.029741032, 0.06457619, 0.24067333, -0.04063493, -0.029979344, -0.04433498, 0.050260484, -0.18701759},
    {0.1087685, -0.068337485, -0.0424442, -0.11860722, 0.16354485, -0.09928108, -0.052269515, -0.076523684, 0.1635558, 0.11316866},
    {0.031056939, 0.050860178, 0.10885922, -0.045164786, 0.32102352, -0.10544095, 0.0034898978, 0.10259547, 0.13721909, 0.1494585},
    {0.036556862, -0.14291951, -0.12110588, -0.008961115, 0.04875828, -0.0012287812, 0.08103925, 0.029582167, -0.090459205, -0.0847131},
    {0.17657015, 0.06977465, -0.13383004, 0.07753138, 0.38847092, 0.09884746, -0.0027699785, -0.07347975, 0.16355251, 0.23869008},
    {0.1653169, 0.079709135, 0.03456731, 0.15897095, 0.33128732, -0.028371664, -0.020010326, -0.013193849, 0.10078748, 0.0029879163},
    {0.015371302, -0.006574602, -0.013927308, 0.1254197, -0.5059626, 0.078026846, 0.09712716, 0.12658794, -0.030591428, -0.059816178},
    {0.036025226, 0.17547227, 0.01857753, 0.0027249625, 0.0963329, -0.30579874, -0.011786676, 0.0105383, -0.082657285, -0.20039907},
    {0.021153836, -0.12716313, 0.054074418, 0.04201554, -0.04494048, -0.054634646, 0.011774672, -0.14198971, 0.13396126, 0.14793722},
    {0.11691315, 0.090076305, 0.20980634, 0.073785454, 0.27698252, -0.178896, 0.018762404, -0.07026013, 0.08092057, -0.031067217},
    {-0.20129272, -0.20580216, 0.16019444, -0.05432168, 0.03978925, 0.09557235, 0.0281869, 0.10690412, -0.020251803, 0.2298595},
    {-0.14015166, -0.08237486, -0.059296686, -0.27743953, 0.03722442, 0.16798922, 0.08516981, 0.068165645, 0.05196669, 0.22529788},
    {-0.09974574, 0.04470508, 0.16547772, -0.16388045, -0.13653941, 0.18908602, 0.059830826, 0.06916734, 0.014080975, 0.21564887},
    {0.13277267, 0.123009995, -0.10270477, 0.18249077, 0.16775827, -0.059626658, 0.07124496, 0.013449366, -0.17236906, -0.2558767},
    {-0.024657141, 0.092893355, -0.15629314, 0.024115423, 0.09143338, 0.06137213, 0.06832007, -0.0026027083, 0.13559501, 0.13942228},
    {0.16016677, 0.21479389, 0.08906616, 0.19225942, -0.098191604, -0.10997545, 0.046081554, -0.029691381, 0.13080323, 0.1376965},
    {-0.027692663, -0.09532864, -0.039689038, -0.10571872, -0.21501091, -0.046745628, -0.00686559, -0.017196862, -0.0070003457, -0.1883931},
    {-0.1415383, -0.15291576, -0.11276911, -0.1975704, 0.09818562, 0.16660771, -0.053850193, 0.027144473, -0.051683843, 0.018246489},
    {-0.03186311, -0.10999984, 0.26400155, -0.015145503, -0.08571208, -0.12416103, -0.08190763, 0.038263418, 0.119452976, 0.13020122},
    {-0.23169342, -0.21641418, -0.033505548, -0.076197445, 0.004898992, -0.01026864, 0.03360979, 0.011051114, -0.035825327, 0.23579405},
    {-0.07318114, 0.08204205, 0.024699494, -0.13925356, 0.24677725, 0.047218464, -0.105439216, -0.12538114, 0.10540828, 0.09434298},
    {0.039134037, -0.086982064, -0.081951685, -0.121927224, 0.280274, 0.09286125, 0.09042119, 0.08463034, 0.043208025, 0.18877292},
    {-0.078907944, -0.048567787, -0.036046874, -0.18927613, -0.26924056, 0.044513084, -0.014753884, 0.07238534, -0.14812899, 0.046381492},
    {-0.09454833, 0.037768785, 0.17075701, -0.13393885, 0.22716479, 0.048435546, -0.17505555, 0.023133373, 0.1807823, 0.2261008},
    {-0.08443749, -0.033279296, 0.08789769, 0.041608375, -0.14789176, 0.009341492, 0.07002146, 0.075312845, 0.103391975, 0.21895352},
    {0.07860265, 0.03007222, 0.057956636, -0.015723776, 0.45236844, -0.18411838, 0.018166175, 0.053814847, 0.011388998, -0.16487677},
    {-0.01878729, -0.056179367, 0.05001674, -0.23792684, 0.1905535, 0.16770172, -0.11982215, 0.048414983, -0.022245046, 0.10634692},
    {-0.18791597, -0.18204607, -0.09170114, -0.05454072, -0.48478127, -0.025124047, 0.0032912954, 0.056569755, -0.07596987, 0.12859358},
    {0.024374047, -0.0070903916, -0.13575491, -0.012114466, -0.06450103, -0.06298841, 0.06810949, 0.060690448, -0.08580351, -0.16129403},
    {-0.051229026, 0.105880715, -0.021614652, -0.08647604, 0.043307092, -0.113419, -0.12555523, -0.13182257, 0.061154526, 0.11451268},
    {-0.15937875, -0.01326521, -0.024880763, -0.2739206, 0.09140924, 0.16700529, -0.074716456, 0.016705146, -0.044829756, 0.021507006},
    {0.020212647, 0.0009340014, 0.14382826, 0.0072675385, -0.29114443, 0.10182245, 0.06630856, 0.012756021, -0.0989135, -0.05003897},
    {-0.063698545, 0.07054981, -0.20717657, -0.11950792, -0.0013356551, 0.09338345, -0.04816456, -0.008599583, -0.038275816, -0.10937978},
    {-0.038564146, -0.21780424, 0.06684831, -0.025897946, -0.23119783, -0.10419178, 0.032556273, -0.04938108, -0.064214684, 0.21265557},
    {-0.10194704, 0.013419235, -0.047408454, -0.17307863, -0.07829032, 0.075789124, -0.14262189, 0.023408748, 0.09213428, 0.17675942},
    {-0.046043262, 0.08222511, 0.013125944, -0.09503924, 0.10733035, 0.026766552, -0.013291131, -0.06790026, 0.08975865, 0.17837635},
    {0.11568288, 0.034173418, 0.106507964, 0.22078618, -0.06342493, -0.18829703, 0.048585914, -0.071789965, 0.02608891, -0.15459576},
    {0.14856873, 0.061425928, 0.053144384, 0.21455498, -0.23070623, -0.08262818, -0.022081373, 0.034301087, -0.18054941, -0.17483944},
    {-0.15695603, 0.02922392, 0.03196744, 0.06727526, -0.35398787, 0.2703049, 0.13131122, -0.051927067, -0.058206547, -0.12181707},
    {-0.22369997, -0.22253914, -0.10117399, -0.14131299, -0.063376695, 0.008539694, 0.06966188, 0.058800593, -0.07432634, 0.123163566},
    {-0.12607086, -0.010770744, -0.026885305, -0.11202265, -0.1823194, 0.030758025, 0.088316135, 0.00579861, 0.041276313, -0.143201},
    {0.09941548, 0.07960427, 0.11340439, -0.11687635, -0.3465185, -0.019539706, -0.09333784, 0.07297159, 0.08472388, 0.113181435},
    {0.16664822, 0.19519623, 0.0027112416, 0.140689, -0.1323585, -0.17400856, 0.07084042, -0.058019824, 0.053013545, -0.31042752},
    {0.09126195, -0.11936798, -0.026424332, -0.10858411, 0.026271204, 0.1151242, -0.12378267, 0.046509515, 0.14843133, 0.09599387},
    {0.067852445, 0.097033925, -0.17877983, 0.039300207, -0.21677595, -0.09586055, -0.10682163, 0.046727046, 0.14206776, 0.060359403},
    {-0.16386276, -0.16884756, -0.045534167, -0.13836505, 0.060726378, 0.08955121, -0.008955882, -0.019078327, -0.031529624, 0.19253333},
    {0.0003094744, -0.105251215, -0.10866877, -0.11739741, -0.29435897, 0.07431873, -0.13044195, -0.033246346, 0.066949464, 0.16996326},
    {-0.053913545, -0.05838165, 0.19095145, -0.10460627, 0.2655907, 0.21252455, 0.08517907, 0.071936615, 0.066297896, 0.1102059},
    {-0.15459578, -0.012561065, 0.13793014, -0.041178428, 0.085266866, 0.19168541, -0.07818089, 0.031583678, 0.08266489, 0.19226608},
    {-0.054729763, 0.027302738, -0.083726466, -0.072143674, -0.19189756, 0.086061046, -0.10470761, 0.05058947, 0.053986587, 0.22683224},
    {0.020327328, 0.12867789, 0.0711927, -0.04270447, 0.14013924, 0.08656524, 0.013295003, -0.03492856, 0.09365425, -0.05551732},
    {-0.01680184, -0.04108853, -0.091675214, -0.061463155, 0.05305077, 0.20327085, 0.009961153, 0.084596105, 0.029767763, 0.18929586},
    {-0.16569823, -0.042801388, -0.02059302, -0.05038323, 0.15839484, 0.16319534, -0.06949132, -0.057592314, 0.020953396, 0.2401266},
    {-0.017820975, -0.19027022, -0.012278663, -0.0093458695, -0.28964642, -0.005405024, 0.04629639, 0.011060952, -0.051732317, 0.20584683},
    {0.024567593, -0.21795885, 0.039531983, -0.23504359, 0.031885188, 0.1932281, -0.006526255, 0.113598906, -0.051706918, 0.22624521},
};

const float gru_weight_hh_l0[192][64] = {
    {-0.07649899, -0.04423357, -0.27684405, -0.14394791, 0.19065353, -0.11418923, 0.17315274, -0.26783183, -0.08471468, 0.039550733, -0.11127734, 0.0133289425, 0.062497593, 0.04006843, 0.1585137, -0.11964927, 0.25651366, -0.07195216, 0.05813652, -0.027903283, -0.35621232, -0.11375041, 0.34461764, 0.01984813, 0.04572989, 0.024498371, -0.12853055, -0.26673374, 0.036756538, -0.124426514, -0.020584092, 0.023085168, -0.18456727, -0.10347727, 0.034463085, 0.04741357, -0.17685448, 0.05528894, -0.114681594, -0.13876566, 0.013461581, 0.18185468, -0.10453316, 0.0022667814, 0.0222529, 0.17207931, 0.13130315, -0.17005308, -0.038393784, 0.14944363, -0.23290797, 0.015946388, 0.044449642, -0.07690978, -0.052474145, -0.39283165, 0.07596042, -0.19359316, -0.28937456, 0.08338743, -0.23164946, 0.0066507356, 0.0043206983, -0.15063551},
    {-0.10950601, 0.060797554, -0.08226536, -0.021354007, 0.21881802, -0.04071462, 0.030058352, -0.25058502, -0.20332757, 0.24136902, 0.006177909, -0.009679137, -0.004413675, -0.08672167, -0.05932636, -0.034629382, 0.108693086, -0.13403013, 0.26138216, -0.15491967, -0.1324668, -0.15932943, 0.06381997, -0.0030075936, 0.0013523749, -0.04007661, -0.08185511, -0.1686624, -0.06410696, -0.16006146, 0.041896883, -0.078016505, -0.09321908, -0.1963297, 0.19254911, -0.18752453, 0.020919822, 0.09713617, -0.049042583, -0.06591345, 0.022620877, 0.15400927, 0.053320765, -0.039201472, -0.16630521, 0.05354828, 0.045814145, -0.17364545, -0.12984592, -0.04864278, -0.134789, 0.033305123, -0.0701117, -0.2437767, -0.13712311, -0.30279073, -0.10905378, -0.11280394, -0.1900761, -0.14408568, -0.1017903, -0.1419366, -0.09455868, 0.021536846},
    {-0.21333994, -0.056623247, 0.033759665, -0.05588675, -0.05576052, -0.021519767, 0.33285528, -0.033383515, 0.029210867, -0.017129544, -0.15086816, -0.03646726, 0.056638945, -0.09382907, 0.1643708, -0.2679899, -0.021593321, -0.12463046, -0.10395294, 0.07254226, -0.12513644, 0.05177798, 0.014277562, 0.10828669, -0.04664814, -0.16176553, 0.040699482, -0.28666127, -0.06525785, 0.040369842, -0.026928116, -0.120211266, -0.018433023, -0.1153575, 0.0107592065, 0.076725006, -0.12545629, -0.00280268, -0.04618806, -0.09204913, -0.10434237, -0.06680685, 0.035134606, -0.02831112, 0.12978232, 0.09973539, 0.22889434, -0.109328076, 0.051833834, -0.06222054, -0.08974863, 0.050687533, 0.025228532, 0.16867402, 0.072810106, 0.06835092, -0.080060676, 0.10003116, -0.02091936, 0.03361072, -0.05922157, -0.029447248, 0.04843904, 0.041435495},
    {-0.041871425, -0.002784266, 0.22962083, -0.21417208, -0.29348433, 0.02811768, 0.0014491376, -0.020786395, 0.12517567, -0.16238584, -0.21698184, -0.15812641, 0.07267162, -0.046879556, -0.19471067, 0.07961348, -0.10201332, 0.07982284, -0.22629374, -0.010957579, 0.062438186, 0.15976222, -0.08410426, -0.10499391, -0.0933779, 0.0070438213, -0.014903396, 0.051739845, 0.20963386, -0.1694749, -0.10426961, 0.03261132, 0.021941274, 0.03727162, -0.21881108, 0.12916924, 0.19388074, -0.027040532, 0.018786747, -0.082254544, 0.16203073, -0.081440255, 0.15169366, 0.14554481, -0.001460417, 0.03631802, 0.18804878, 0.06932703, 0.18751588, 0.07304349, 0.33466294, -0.1406326, -0.038406324, 0.16919415, 0.06690702, 0.0829793, -0.25283164, 0.06567484, 0.11190022, -0.1950506, 0.013240229, -0.10784202, 0.08614841, 0.022020753},
    {-0.21488307, 0.013571641, -0.2019967, 0.15091565, 0.06115552, 0.11125193, 0.43642765, -0.122381836, -0.11866071, 0.070527285, 0.007977892, 0.0800129, 0.033077717, 0.1736779, 0.02791084, -0.273006, 0.037534274, 0.041284192, 0.042868104, 0.065677956, -0.21550654, 0.06647022, 0.12390945, 0.099666536, 0.16145633, -0.0071007186, -0.10235814, -0.05496525, 0.15893881, 0.015443538, 0.13137405, -0.1460046, 0.083917685, 0.046755284, 0.25425476, -0.06862779, -0.21660393, -0.050376434, 0.038588244, 0.026274106, 0.08754109, -0.23660105, 0.03229612, 0.12437577, -0.03427402, 0.01563497, -0.006627886, -0.39899585, -0.11370558, -0.0026504258, -0.17321983, 0.023239993, -0.068636164, 0.1474381, 0.037508585, 0.07391684, -0.061791945, -0.121830575, 0.12130764, -0.13188417, -0.03382386, -0.06495589, -0.13813226, 0.06888892},
    {-0.08831044, -0.18216996, 0.12201144, -0.001999101, -0.15439473, -0.06375115, 0.2228228, -0.16861972, 0.06668587, -0.13151494, -0.047448214, -0.06270501, 0.09387177, -0.09686259, -0.095412455, -0.16177328, 0.041071847, 0.0007024006, -0.0990372, 0.12745278, 0.13881297, 0.015339007, 0.06036879, 0.0016157606, 0.0029948337, -0.10083997, -0.014881415, 0.061892685, 0.06088866, -0.1224227, 0.02406645, 0.0018801551, 0.055709742, 0.014731614, 0.042768706, 0.03237755, -0.030255964, -0.0024867952, -0.061534792, -0.024254039, -0.102802254, -0.040118977, 0.040298983, 0.107101776, 0.086902246, -0.17663781, -0.07894945, 0.048016626, 0.13248876, 0.041282114, -0.21831794, 0.025245713, -0.099303074, -0.12354965, 0.21384385, -0.14028576, 0.06523387, 0.11730072, -0.030984774, -0.1715728, -0.0024082935, 0.011344113, 0.14711694, 0.24092464},
    {-0.0038263851, 0.04139633, -0.12589191, 0.21935618, 0.21934906, 0.16646513, 0.14877936, -0.20430754, 0.12959763, 0.011007751, 0.0753134, 0.12612139, 0.07117985, 0.07280363, 0.027908769, -0.28857467, -0.020155745, -0.10631307, 0.09315867, 0.20311405, 0.44051632, -0.059782453, 0.17200091, -0.010537785, -0.36663306, -0.03324554, 0.09775647, 0.11407629, 0.076694205, 0.26663953, 0.11203574, 0.036563337, 0.25077787, -0.13043818, 0.06765339, 0.4030544, -0.028405678, -0.053526092, -0.02562121, 0.46381885, -0.03555102, 0.0016547143, 0.19561578, 0.12073108, 0.18400933, -0.43458033, -0.16727218, -0.014105888, 0.00025266633, -0.016132059, -0.5409796, -0.17857851, 0.056634646, -0.12007826, 0.3569901, -0.2764855, 0.6329901, 0.21816674, 0.011820971, 0.0074077668, 0.21567963, 0.2857364, 0.063898765, 0.4088694},
    {-0.13458826, -0.04893259, 0.14978147, 0.070420854, -0.2231036, -0.119927086, 0.15726918, -0.035193186, 0.050490923, -0.23966128, 0.073502176, 0.053371545, 0.06493777, 0.12210335, 0.1216004, 0.029985493, 0.08789408, 0.1324641, 0.04081836, 0.0898373, -0.036705177, -0.059555136, -0.12890536, -0.06091599, -0.09656836, 0.014561239, -0.13867615, -0.042394992, -0.012868263, 0.00066708925, 0.016733557, 0.17150581, 0.02408037, -0.02337563, -0.17392798, -0.09062947, 0.030281702, -0.11410784, 0.015159101, -0.12842639, 0.08935796, 0.05673672, 0.08162978, 0.13066833, -0.056348074, -0.14668089, -0.11688296, -0.086084515, 0.07164684, -0.08948285, 0.06494995, -0.21033245, -0.07331323, 0.008463669, 0.118850514, -0.06911898, -0.011146434, 0.052403286, -0.053668324, 0.054540236, 0.0812057, 0.14844336, -0.015757656, 0.12561476},
    {0.07099255, -0.1771418, 0.13135761, 0.02019755, -0.3813763, -0.0064236163, 0.03150068, 0.11765861, 0.005351978, -0.3590902, -0.13077697, -0.16516063, 0.020218492, -0.20349525, -0.16226947, 0.02659082, -0.17611337, 0.03723508, -0.1296235, -0.12006302, -0.19045019, 0.026107945, -0.06752804, -0.09284118, 0.2327301, -0.010593483, 0.006408518, 0.014864702, 0.17681515, -0.06383323, -0.06242328, -0.1112263, 0.08522398, 0.17852268, -0.13701293, 0.052666385, 0.13941398, 0.14259979, 0.13006605, -0.11876728, 0.0094936695, -0.060676146, 0.12789223, 0.024997935, -0.041122843, 0.06970712, 0.13782065, -0.108823486, 0.07800351, 0.094428405, 0.29310796, 0.029286036, 0.063228846, 0.18478322, 0.017028505, 0.37053245, -0.18994622, -0.019417929, 0.1509569, -0.074656755, 0.04007139, -0.07979107, -0.019242236, 0.049498975},
    {-0.10464196, 0.20055868, -0.05815999, 0.081667654, 0.025674485, 0.1935407, 0.24316399, -0.005971305, 0.019309174, -0.12666419, -0.06187017, -0.024827214, -0.089830056, 0.076426126, 0.19970919, -0.19270697, -0.02832173, 0.04803106, 0.14482118, -0.030624524, -0.18046132, 0.15408942, -0.034203906, -0.08076005, 0.11351414, 0.003551005, 0.04661984, -0.27105647, 0.036454808, 0.11496718, 0.06881146, -0.20486626, 0.020230062, -0.08819173, -0.033132672, 0.122066066, -0.25395045, 0.072785534, 0.078658864, -0.10541525, -0.1134662, -0.07536368, -0.1096273, 0.1366756, 0.03180861, 0.01867108, 0.09376649, -0.08152364, -0.034967374, -0.017673917, -0.1794946, 0.02098626, -0.12304088, -0.04695367, -0.032608323, 0.03004298, -0.046435855, 0.10819352, 0.06292574, 0.014902283, 0.10869211, 0.066584475, -0.104795754, 0.011150568},
    {0.05259616, 0.0783373, -0.019205147, -0.18555704, 0.040054712, -0.15665238, -0.0896516, 0.08388484, -0.0384619, -0.04651774, -0.047389127, -0.013123269, -0.0021827302, -0.16615303, -0.13543595, -0.044327725, 0.16841687, 0.0056793336, 0.07703209, -0.15905583, -0.067609645, -0.0058294153, 0.0020750645, -0.0771132, -0.057144236, 0.07496934, 0.02690064, -0.20350069, 0.12119035, -0.18952657, -0.014819726, 0.020420313, -0.15064141, 0.029588705, -0.054372486, -0.19279113, -0.048032638, 0.016298907, -0.0032439204, -0.039551865, 0.16834505, 0.16943683, 0.01797515, -0.043881424, -0.1562622, 0.03829439, -0.022080101, -0.09195752, -0.08118311, 0.16107824, -0.043791354, 0.06822853, -0.0767471, -0.015179836, -0.12619196, 0.0011680529, -0.011027044, -0.17558976, -0.09092614, -0.026109938, 0.03663048, 0.04994817, 0.058581624, 0.10022118},
    {-0.20105788, -0.017520152, -0.20341113, -0.12427044, -0.060630493, 0.11366329, 0.25161424, -0.034116484, 0.08082989, 0.044403035, -0.027210876, -0.01587987, -0.097466916, -0.027052041, 0.11602206, -0.025392862, -0.0041949917, 0.07964387, -0.09121046, 0.012976386, 0.042179503, -0.002736559, -0.05110652, 0.079481915, -0.033504397, 0.028145708, -0.14576416, -0.02135498, -0.005479336, -0.051528886, 0.15512139, 0.065147236, 0.07705197, 0.025810638, 0.05966936, -0.044472896, 0.014808611, -0.02134347, -0.05436457, -0.0034816815, -0.03505777, 0.037813358, 0.18932429, 0.030249827, -0.037694287, -0.014485999, -0.046511557, -0.017350074, -0.0019671712, -0.0657375, -0.119199425, -0.14363341, 0.0039473563, -0.024328034, 0.028502245, -0.08987793, -0.013137892, -0.10107499, 0.079681575, 0.047841962, -0.029493108, 0.12326575, 0.06731816, 0.047488425},
    {-0.13038224, -0.111881725, 0.106140584, -0.21054332, -0.11379169, -0.24190032, 0.010740445, 0.06955899, -0.07460599, -0.25726667, -0.045595337, -0.037838914, -0.08801958, 0.020221846, 0.036353093, 0.118840925, -0.042699754, 0.039878316, 0.0117039075, 0.055505246, -0.07762842, -0.0027068714, -0.045838803, -0.010234405, 0.1352162, -0.058839798, -0.12100645, 0.023542974, -0.094773374, -0.19158721, -0.06363405, 0.17135061, -0.20430106, 0.051232595, -0.023363063, -0.008588791, 0.046025783, 0.07277703, -0.18742616, -0.23873173, 0.07585273, 0.003570624, 0.17872858, -0.055361453, -0.07162112, -0.10195369, -0.08138894, 0.03955519, 0.12540574, 0.09647359, 0.20965399, -0.13190733, -0.13910377, -0.06932142, -0.073960304, 0.055974226, -0.09267162, -0.008115732, -0.033522915, -0.1147009, 0.034770276, 0.042872183, 0.19320202, -0.068936765},
    {-0.091063716, 0.08977357, -0.1590059, 0.06099551, 0.0763394, 0.0079665445, 0.055262312, 0.095725484, 0.016459154, -0.07035071, 0.030327953, 0.13404955, -0.116926484, -0.021539226, 0.036996294, -0.22508262, 0.0016027351, -0.0487007, 0.10807672, -0.050691824, -0.02417644, 0.030003378, 0.0785783, 0.07641788, 0.0997585, 0.044341575, 0.032807045, 0.08769507, 0.12541276, 0.15380095, 0.08915728, -0.089672364, 0.1478862, 0.014754501, -0.09504113, 0.015434902, 0.06810819, -0.038843222, -0.10717355, 0.0892205, -0.10387124, 0.11977022, 0.078543074, -0.11073022, 0.14588553, 0.03784171, -0.045666166, -0.11830593, -0.064273685, 0.007420463, -0.17068534, -0.10711253, 0.0035578108, -0.1256175, -0.014680293, -0.06893718, 0.13565756, -0.025057066, -0.101880096, 0.0022679484, -0.0301023, 0.104144864, -0.09572365, 0.007502959},
    {-0.14104587, 0.1546158, -0.14161927, 0.01643226, 0.3548562, -0.106874324, 0.17392157, -0.24660721, -0.23514012, 0.23674616, 0.0023103906, -0.07858888, 0.08542653, -0.06059357, 0.07014029, -0.11007911, 0.19984423, -0.291617, 0.11917745, -0.08255367, -0.45952046, -0.26259896, 0.21419075, -0.1336429, 0.053340603, -0.0075346446, 0.028884819, -0.1474058, 0.06222545, -0.18806441, -0.017387051, -0.13150822, 0.03384949, -0.30420378, 0.16476573, -0.25002632, -0.114583015, 0.2252462, -0.15515502, -0.2051795, 0.08898021, 0.04659455, -0.09473908, -0.18702959, -0.07989861, 0.2780865, 0.12468594, -0.15022029, -0.08730626, -0.054114364, -0.32575324, 0.23163752, -0.04073878, -0.18954928, 0.033790708, -0.37778512, 0.03287662, -0.22982918, -0.30016184, -0.04763269, -0.044234652, -0.2223832, -0.08804239, -0.16534607},
    {-0.124104686, -0.029258294, -0.25006115, 0.099014066, 0.3383783, 0.16264576, 0.3680782, -0.22028843, 0.0066169123, 0.17571826, -0.19426179, 0.004225645, 0.1529387, 0.15598089, 0.054442685, -0.06979049, -0.015325216, -0.114677735, 0.08389265, 0.1171511, 0.050230794, -0.042053867, 0.10414549, -0.056191895, -0.35521287, -0.047892895, 0.21758686, 0.14407766, 0.043851346, -0.026796905, 0.16170552, 0.04726386, 0.09588886, -0.21242371, 0.26704967, 0.2848633, -0.03712665, 0.12628502, -0.09886103, 0.19568008, -0.092708424, 0.034991074, 0.15817876, 0.013782219, -0.016095556, -0.38999975, 0.029741067, 0.022591913, 0.10592924, 0.007966362, -0.454128, 0.10451921, -0.04943766, -0.08015656, 0.41356388, -0.42295521, 0.16590886, 0.011449177, -0.106684394, -0.04468442, 0.2793617, 0.02808823, -0.015033557, 0.30755848},
    {0.026945362, -0.020162823, 0.16315375, -0.24780945, -0.25245222, -0.12167376, 0.07361356, 0.012705455, -0.14638987, -0.3042183, -0.16246958, 0.06363457, -0.046772376, -0.030077262, 0.095334016, -0.054880023, -0.04088707, 0.15081096, -0.23315176, -0.07056996, 0.024054479, 0.1733562, -0.08917948, 0.040695447, 0.15738079, 0.014647099, -0.07589125, -0.12750876, 0.061729908, -0.14236611, 0.037496097, 0.1821509, 0.001991928, -0.04634459, -0.2702354, -0.08381397, 0.11893749, 0.0807918, -0.13422605, -0.22167648, -0.03539695, 0.04195481, 0.06527598, 0.019696785, 0.14444417, -0.13344227, -0.07610715, -0.1168499, 0.00800815, -0.1402946, 0.32589382, -0.27938348, -0.024657145, 0.03679009, -0.09539211, 0.18105839, -0.15493783, 0.057118006, 0.028823657, -0.017818412, 0.057052065, 0.038301043, 0.12109121, -0.022527099},
    {0.11237507, -0.18953453, 0.22003129, -0.14123617, -0.31493276, -0.11624517, -0.056330893, -0.000803482, -0.048607223, -0.27863294, -0.06907428, -0.1780499, 0.026628362, -0.107166335, -0.040796265, 0.04571431, -0.080587804, -0.032943007, -0.24986984, -0.11871136, -0.13063492, 0.21175662, -0.013603641, 0.020286564, 0.0963902, -0.10269317, -0.035637654, -0.11269305, 0.16163272, 0.04912344, 0.049084924, 0.044303276, -0.019291088, 0.042018346, -0.26050568, -0.0015176901, 0.12964584, 0.09316946, -0.07665182, -0.09601982, -0.09018898, 0.034293637, 0.15252882, -0.040931094, 0.111664936, 0.01241773, 0.1725737, 0.0077488166, 0.15813391, -0.15107523, 0.12466332, -0.25587147, -0.11018719, 0.13655415, 0.12188337, 0.15797566, -0.00096581795, -0.050139718, 0.1306265, -0.08245669, -0.013463216, 0.13625096, 0.2109502, 0.10724819},
    {-0.03862449, 0.042872373, -0.10645738, -0.044294275, 0.09018637, 0.08060846, 0.31549305, -0.023055097, -0.094481595, -0.0256216, 0.07963929, -0.053282194, -0.13156594, 0.036046505, 0.09012154, -0.13383779, -0.020899361, 0.030186176, -0.016845042, 0.078500025, -0.18622518, -0.11851935, 0.10274826, -0.043680687, 0.12738016, -0.16117099, -0.071574576, -0.1852924, -0.039852142, 0.1411383, -0.036768097, -0.082019255, -0.0405777, -0.06422593, 0.107237525, 0.013849326, -0.021027537, -0.1237536, 0.06622583, -0.012030586, 0.082026936, -0.14423068, -0.10807322, 0.07524906, 0.08067053, 0.023330534, 0.21658461, -0.1500146, -0.13115023, 0.00068726274, 0.08390034, -0.00086720503, -0.0114491135, 0.14360054, 0.0137017155, 0.037731998, -0.053816937, -0.099969074, -0.06818124, -0.016864007, 0.114982024, 0.07376737, -0.036371067, -0.0013139356},
    {0.06880273, 0.07797452, -0.18942179, -0.14675938, 0.16433594, -0.08672823, 0.0669527, -0.13735524, 0.0020280867, -0.01587416, -0.09967161, 0.03394119, 0.07152522, 0.049384974, 0.0660991, 0.086309984, 0.18606874, -0.003038243, 0.12378094, -0.13846049, -0.21459168, -0.19486345, 0.101104796, -0.07311515, -0.049135536, 0.13207856, -0.07834808, -0.1382967, -0.058787413, -0.042980995, 0.063907474, -0.02012918, -0.06725682, -0.23014913, 0.13650681, -0.034153987, 0.010474495, -0.020405615, -0.11776738, -0.14025645, 0.12397852, -0.0018283065, -0.03694782, 0.009695488, 0.0026168127, 0.021778515, 0.20447797, -0.12801233, -0.048431423, 0.06784875, -0.15270928, 0.20674959, -0.09993576, -0.1163097, -0.0050423415, -0.23117018, -0.06984637, -0.042812187, -0.22852813, 0.099147685, -0.13584894, -0.030962095, 0.02594456, -0.09394712},
    {0.102634355, 0.01878882, 0.14575714, -0.16764669, -0.23370206, -0.06862984, 0.027618937, -0.05893805, 0.028326804, -0.22444686, -0.14387192, -0.10531725, 0.029866697, -0.16635218, -0.16330723, 0.13652523, -0.0835381, -0.15149051, -0.08841318, -0.117632195, -0.25522152, 0.14482912, 0.050877884, -0.1104055, 0.13130935, 0.12723151, -0.04276765, -0.28346387, 0.11837423, -0.12563123, -0.17594074, -0.017788138, -0.16591513, 0.01894795, -0.11994862, -0.0006331002, 0.09289252, -0.00012851329, 0.1373536, -0.1728179, 0.08107977, -0.0995835, 0.02372832, 0.06694881, -0.14228147, 0.16935106, 0.34015733, -0.0017032126, 0.13421106, 0.021988528, 0.30619848, -0.063175544, -0.09120017, 0.08455888, -0.032599006, 0.30232313, -0.15952021, 0.05489065, 0.09179057, -0.059501845, -0.13030703, -0.03489362, -0.027681671, 0.020954998},
    {0.03202831, -0.0014302429, 0.033989586, -0.10675858, -0.26512703, 0.06293776, -0.0038265197, -0.017573297, 0.0367202, -0.19332704, -0.011591371, -0.05699506, 0.022359438, -0.05950889, -0.021747055, 0.15527157, 0.014454588, -0.072570115, -0.12433362, 0.12556282, 0.055460207, 0.13695753, -0.16595776, -0.06342694, 0.013125936, -0.14391969, 0.11556438, 0.08827715, 0.0436291, -0.022518229, -0.15600552, -0.02312957, -0.0698256, 0.05557406, -0.1942974, 0.15277931, 0.08103057, -0.06761458, 0.067475386, 0.06875327, 0.07474126, 0.0360559, 0.17283013, -0.066872366, -0.033830196, 0.008174196, 0.060392052, -0.07649785, 0.22981822, 0.06253212, 0.07739567, -0.23715943, 0.036588583, -0.023104785, 0.18625388, 0.07840757, -0.047314893, 0.028942935, -0.049911667, -0.028636811, -0.059804246, 0.06756465, 0.12674059, 0.22284505},
    {-0.09500407, -0.11516461, 0.21161127, -0.0068819225, -0.4355164, -0.0504707, 0.054617774, -0.1238006, -0.19231081, -0.2605866, -0.043696154, -0.13964586, 0.007364817, -0.0046438156, -0.07524977, 0.1842168, -0.08029559, -0.022037353, -0.06909364, 0.008689468, 0.13278227, 0.051790208, -0.014698382, -0.032529674, -0.10628379, 0.057095516, 0.063961506, 0.042658463, 0.04631226, -0.15723668, -0.06237743, 0.021853073, -0.11730304, 0.02611543, -0.053439803, -0.10480094, 0.22520977, 0.002346211, -0.121268466, -0.05096449, 0.0767845, -0.05974198, 0.0014959779, 0.0768519, 0.06630443, 0.10045148, -0.02859721, 0.044164553, 0.07299395, -0.11834464, 0.06540497, -0.22528408, -0.11104843, 0.03669121, -0.09460065, 0.041346114, -0.13618284, 0.029659307, -0.050107278, -0.10664405, -0.03587114, -0.010463447, 0.14525214, 0.09123829},
    {0.016940527, -0.14829764, -0.19651882, 0.030936422, 0.20769323, -0.18553823, -0.055939928, -0.105931416, -0.242582, -0.014484014, -0.02047819, -0.097832665, 0.061913047, 0.02848696, 0.028810417, 0.07308824, 0.1876178, -0.05534866, 0.15226057, -0.12828913, -0.19320576, -0.09411407, 0.09906271, 0.086937346, 0.079120785, 0.085616864, -7.647295e-05, -0.0969606, -0.089034155, -0.27660102, -0.17112818, -0.014756476, -0.048426494, -0.18509212, -0.0009923286, -0.17265594, 0.010002684, 0.10407195, -0.07170529, -0.15066099, 0.073763095, 0.030892175, -0.006435616, -0.22379902, -0.15029015, -0.034737468, 0.1630298, -0.24683689, -0.12424694, 0.20132026, -0.081414245, -0.028190963, -0.17918918, -0.10148311, -0.10959258, -0.20508991, -0.07312181, -0.120280094, -0.12157755, -0.11542702, 0.04726582, -0.14550133, 0.10990391, -0.072440535},
    {-0.13755645, -0.066852175, 0.006204561, 0.000944036, 0.13055006, -0.31087863, -0.13027246, -0.2324253, -0.1865204, 0.08752867, -0.10662005, -0.06590372, 0.15306672, -0.2830974, 0.01739773, -0.005690229, 0.17949183, -0.28933161, 0.08561893, -0.05864183, -0.30794767, -0.123517565, 0.074074484, 0.0053488044, -0.016209891, 0.19404201, -0.120829865, -0.25718912, -0.15503784, -0.11358723, -0.2502416, 0.0049878205, -0.21259049, -0.13205647, 0.045318626, -0.04823773, -0.011512114, 0.07145857, -0.16937333, -0.13978991, 0.19589019, 0.059909683, 0.033570077, -0.06139913, -0.17750429, 0.1271264, 0.3013981, -0.032040082, -0.07699441, 0.04433571, 0.055431988, 0.011903829, -0.120907515, -0.053057726, -0.061015982, -0.18934886, -0.027964069, -0.20354496, -0.11392917, -0.19676623, -0.05756354, -0.24226679, 0.015398114, -0.17948028},
    {0.07598319, 0.034626614, -0.10449462, 0.001991804, 0.10005521, 0.022144573, 0.112450846, -0.11903113, -0.09052421, 0.10249795, -0.05439357, -0.048236262, 0.07824289, 0.09700288, -0.012507705, -0.059322912, 0.20237435, 0.015737318, -0.015944844, -0.030681906, -0.013709562, -0.2156992, 0.10926558, 0.016544398, 0.08458352, 0.052051034, -0.06562027, -0.23172761, -0.0067631495, 0.034871083, 0.035384916, -0.09153056, -0.057113055, -0.07826858, -0.040883835, -0.22999799, 0.00084914215, -0.08388397, -0.20812578, -0.20312239, 0.047545716, 0.1564491, 0.004184382, -0.03840756, 0.008011851, 0.13190554, -0.078446515, -0.027367339, 0.07045914, 0.19245175, -0.22918786, -0.14704749, 0.06464703, 0.06860468, -0.082040474, 0.0010575271, -0.14812648, -0.21819036, 0.00609976, -0.07376024, -0.008613201, 0.0914685, -0.04246043, -0.04855156},
    {0.07930173, -0.06330781, -0.15768456, 0.011736721, 0.15894409, 0.060306326, -0.010080985, -0.13958119, -0.076251164, 0.08686997, -0.08655177, -0.0769309, -0.07838852, 0.06054593, 0.0124291675, -0.06656284, 0.20794693, -0.06710369, 0.22558708, -0.15118179, -0.35623732, -0.04087207, 0.19920981, -0.07648385, 0.14771229, -0.14566043, -0.030887054, -0.25621617, -0.11257512, 0.09882375, 0.07005488, -0.08983177, -0.019203408, -0.023814708, -0.00972299, 0.07345132, -0.08683332, -0.09730084, -0.04398515, -0.07002954, 0.08821946, -0.06698673, -0.059524562, -0.04076708, -0.060349263, 0.09959224, 0.11092447, -0.10393904, 0.04307505, 0.012776486, -0.133314, 0.004826006, 0.036279377, -0.066733204, 0.10702942, -0.11415127, 0.12257715, -0.056234438, -0.19121021, 0.11560975, -0.038154073, -0.09189689, -0.020850431, -0.10617525},
    {-0.08888407, -0.1880804, 0.17673527, -0.31164387, -0.32941905, -0.16802649, 0.010401802, 0.049990125, -0.039689917, -0.31713244, -0.08763531, -0.098466635, -0.107209526, -0.0871114, -0.12422751, 0.15530083, -0.07794754, 0.14064059, -0.21150786, 0.0060224854, 0.012561241, 0.10883823, -0.082549214, 0.05821134, 0.15115047, -0.06483641, -0.02469422, -0.088222645, -0.023922406, 0.047801435, -0.04616247, 0.058374073, 0.0008459573, 0.22403774, -0.3150979, 0.04883389, 0.12297239, -0.010878445, -0.013398998, -0.15055887, 0.0019061628, -0.112815864, 0.17894146, -0.015678367, -0.06087772, 0.08824993, -0.006469974, 0.11255635, 0.09201306, -0.037742198, 0.45537627, -0.19114536, -0.1314927, 0.2151283, -0.18935412, 0.42363185, -0.18080343, -0.102323696, 0.117079414, -0.04104759, -0.13112597, -0.05921088, 0.14360476, 0.023207307},
    {-0.10657259, 0.10108035, -0.069424406, -0.022365917, 0.016805453, 0.02357169, 0.14601041, 0.062609054, -0.06353571, 0.038035486, 0.0066459104, 0.07158063, 0.12577568, 0.03550743, 0.10678074, -0.23285718, -0.15024307, -0.15196902, 0.060209084, 0.05304047, -0.16870287, 0.13947628, -0.008351069, -0.02266215, 0.0936957, -0.09617094, 0.017390193, -0.057290282, 0.1115402, 0.072924346, 0.14432836, -0.2390654, 0.059339844, -0.07533915, 0.014714743, 0.12828834, -0.036734186, 0.024789553, -0.08616174, 0.043645993, 0.01461083, -0.1047918, 0.022356339, 0.09660874, 0.044641912, 0.09026059, 0.17543581, -0.022796761, 0.073589474, -0.13711113, -0.054383833, 0.06478666, 0.12006203, 0.08463355, 0.11426935, 0.16215603, 0.0024164442, 0.11213489, 0.0019336063, -0.014538474, -0.019144736, -0.13693702, 0.02767287, 0.077270485},
    {-0.069613256, -0.02029319, 0.15022372, 0.0431485, -0.21922766, -0.049726207, 0.00862582, 0.055945553, -0.095506676, -0.04959774, -0.051487226, 0.010766278, 0.086557664, 0.13860704, 0.1373845, -0.14342836, 0.03941518, -0.024002751, 0.027917743, -0.0014419133, 0.15717202, -0.085162595, -0.096626654, 0.12568118, 0.13472682, 0.021733968, -0.06468762, 0.010564885, 0.10763344, 0.04830511, -0.019154962, 0.09544253, 0.08948247, 0.046650354, -0.12556425, 0.012282424, 0.057822812, -0.06436169, -0.035943847, -0.078742355, -0.13463606, 0.014253454, 0.14799471, -0.0424581, -0.033331778, -0.16151313, -0.18366395, -0.09961239, -0.022603381, -0.11294528, 0.12786494, -0.18236265, -0.0007687309, -0.07605576, 0.0040171267, 0.05729254, -0.042959996, 0.14922465, 0.16290417, -0.09331066, 0.08826373, 0.066477016, 0.04597947, 0.15424497},
    {0.09681957, -0.09672316, 0.1346669, 0.036315884, -0.12873253, -0.046764206, 0.13929813, 0.014128265, -0.023972496, -0.22045144, -0.05405294, 0.034615792, -0.10175451, 0.10790364, -0.08989363, 0.019263199, 0.050101865, -0.020297216, 0.0043741683, -0.05642136, 0.094931185, 0.089472584, -0.10639072, 0.086287685, 0.16956656, -0.017685397, 0.03322341, 0.06420369, -0.05815587, 0.12066261, -0.047396317, 0.11850509, 0.016821336, 0.15091686, -0.09162297, -0.14993148, 0.20944798, -0.058540918, -0.17831612, -0.0544785, -0.116491534, -0.045196414, 0.047521636, 0.013470142, 0.04393669, 0.0783333, 0.058779713, 0.0038565856, -0.032460082, 0.036223896, 0.02226676, -0.21707712, -0.09251356, 0.016781097, 0.10310582, 0.18809201, 0.024517233, -0.11592416, 0.15260126, -0.10178141, -0.055798877, 0.06993052, 0.1946867, 0.13545826},
    {-0.18911527, 0.10844093, -0.2652929, 0.13791977, 0.29242662, 0.07531756, 0.0857632, -0.26492023, -0.07563752, 0.1218588, -0.18794356, -0.10303885, 0.23263642, -0.13766737, -0.09436889, -0.07159021, 0.12055309, -0.26626185, 0.27015308, -0.09322891, -0.39635155, -0.15157275, 0.108957656, -0.056665212, -0.1095639, -0.016573058, -0.082227394, -0.221774, 0.09751979, -0.059576016, -0.11061558, -0.053702783, -0.026262086, -0.16766597, 0.044818297, -0.12860386, -0.17249146, 0.14363755, -0.076586634, -0.10714799, 0.18178017, -0.0423231, -0.084833935, -0.036915798, -0.06542821, 0.001987008, 0.19040062, 0.00853695, -0.14188123, 0.13267477, -0.19933046, 0.07307131, -0.1494783, -0.25530612, -0.074283615, -0.4767359, 0.019916505, -0.060243543, -0.100837365, 0.048117194, -0.1063551, -0.10817143, -0.075268134, -0.25785834},
    {0.011646512, -0.083602116, 0.14068834, -0.15537894, -0.33986744, -0.032290332, 0.14597335, 0.013597785, 0.017896218, -0.19753212, -0.12867507, 0.01337611, 0.072325304, 0.027769994, -0.17934746, 0.09799131, -0.14716972, 0.023728397, -0.13728724, 0.0014825866, -0.0005158068, 0.078723185, -0.1158659, -0.023834005, 0.030815741, 0.07560624, 0.13151138, 0.048629, 0.19891116, -0.098103225, 0.07836007, 0.06320014, -0.007355954, -0.08138902, -0.020150553, 0.1681564, 0.22692706, -7.0658025e-05, -0.096370555, 0.083460346, 0.058544695, 0.06687005, 0.14769919, 0.11727834, -0.09154585, 0.050924763, 0.032290276, 0.052326944, 0.08975647, -0.008017087, 0.10251595, -0.13212182, -0.08288731, 0.044046216, 0.09872753, 0.18293352, -0.030054139, -0.05373756, -0.011007534, -0.08503693, 0.013859909, 0.03146543, 0.10516288, 0.10382297},
    {0.0616111, -0.13611454, 0.09305711, -0.13875999, -0.40128806, -0.1515743, 0.0083646085, -0.03702159, -0.09590964, -0.27648136, -0.22187288, -0.096831255, 0.03003398, -0.12611827, 0.070318855, 0.01525899, -0.13211015, -0.06416288, -0.18276162, -0.06497357, -0.04870238, 0.05215502, 0.0023171287, 0.12385894, 0.054299984, -0.099903, 0.04418455, 0.097558826, 0.10181376, 0.03294092, -0.15749386, 0.10934453, -0.061953958, -0.02836362, -0.27590263, 0.045079872, 0.2119687, -0.038094554, -0.19636545, -0.006001104, 0.07697256, -0.02007913, 0.018501405, 0.050047416, -0.012258777, 0.091978505, 0.10501054, 0.09681162, 0.0925238, 0.072874196, 0.043483384, -0.19863592, -0.035551675, 0.12628126, 0.15557687, 0.19723672, 0.019915028, -0.15002927, 0.17976318, -0.07545904, 0.030219799, -0.033834707, 0.13525063, 0.1307683},
    {-0.1701167, 0.10777176, -0.25289786, 0.1356226, 0.32386786, -0.10963163, 0.19977532, -0.15788674, -0.0451636, 0.13126336, -0.039607458, -0.13728733, 0.052723773, -0.07124455, -0.012463871, -0.0955775, 0.21775153, -0.22567402, 0.0044592493, -0.15054835, -0.24357083, -0.1411456, 0.12617786, -0.028175715, -0.082467824, 0.005571884, -0.10464171, -0.19147643, -0.12019427, -0.008266081, 0.07114198, -0.12031127, 0.039881956, -0.06294731, 0.015347552, -0.1306307, -0.029549051, 0.12539321, -0.0073356843, -0.028755058, 0.13833255, 0.07365861, 0.018970307, -0.02417928, -0.029915234, -0.024088144, 0.19970208, -0.2500236, -0.017340865, 0.06563795, -0.30706614, 0.1766169, -0.19529584, -0.15059347, -0.08688335, -0.391233, 0.11289857, -0.25461727, -0.12905549, -0.12823248, -0.21301436, 0.01406168, 0.0099091325, -0.12946925},
    {-0.14380255, 0.090153754, 0.0971525, 0.025280744, 0.027816467, 0.119855925, 0.18066008, -0.017666394, -0.0054368526, -0.0920507, -0.055235263, -0.0021456226, -0.012531636, 0.18461448, 0.10921192, -0.15588115, -0.16042043, 0.06653594, 0.14703044, 0.11155868, -0.09306312, 0.014057002, -0.17413081, 0.09122793, 0.1864675, -0.052157477, -0.15725413, 0.024481872, 0.061665744, -0.022678988, 0.17990115, -0.10404141, 0.18654002, 0.0033277161, -0.05807537, -0.07071155, -0.12655954, -0.06133307, 0.015706146, -0.20579144, -0.07501734, -0.04426273, 0.020283751, 0.106043786, 0.20073004, 0.041050255, 0.12158087, -0.04320099, -0.05478162, -0.039398964, 0.057740614, 0.15954219, -0.0025046528, 0.0037040487, 0.115244165, 0.007852648, -0.18214463, -0.0056097102, 0.110543564, 0.025976747, 0.0064380867, -0.1554476, -0.037145156, 0.04392485},
    {-0.058121238, -0.03907491, -0.2936618, -0.015021548, 0.421455, 0.01757715, 0.09128269, -0.23719437, -0.18064515, 0.15336114, -0.18514268, -0.14556897, 0.1875044, -0.18991378, -0.06282043, -0.03306202, 0.24534942, -0.3058963, 0.08077445, -0.114743285, -0.40818316, -0.0606075, 0.2557296, -0.1508261, -0.05584753, -0.002051801, 0.016123656, -0.29451212, -0.098627396, -0.19061244, -0.110097766, -0.16924776, -0.1152412, -0.07174667, 0.18857656, -0.024021177, -0.022360656, 0.16242142, -0.09781055, -0.2857724, 0.14518057, -0.09091618, -0.0847103, -0.1686499, -0.050496392, 0.1305332, 0.1077785, -0.16208565, -0.13195153, 0.018832942, -0.15640278, 0.29989868, -0.18744786, -0.28171274, -0.11737486, -0.44057244, -0.073725395, -0.14356804, -0.2788075, -0.10334491, -0.08644179, -0.232727, -0.13095246, -0.0636687},
    {-0.13523094, -0.07862076, -0.104258224, -0.05654589, -0.06788376, -0.18197776, 0.06206538, -0.028195523, -0.16680154, -0.12241779, -0.011775972, -0.042304028, 0.1082471, -0.18607092, -0.16749531, 0.075039245, 0.109013, -0.06684585, -0.079851426, 0.15585932, -0.096886545, 0.11739302, 0.08053596, 0.032636613, -0.027240656, 0.09641793, -0.021024896, 0.06926129, 0.15965644, -0.016128687, -0.09253475, 0.017017039, -0.14275512, 0.05050165, -0.084736586, -0.030173061, 0.033228543, 0.052348677, -0.049583457, 0.077938676, 0.06728898, 0.04846933, -0.0323933, -0.14274615, 0.022854675, -0.12774304, -0.018054102, -0.04757523, 0.12486688, 0.13820039, -0.102968045, -0.021535734, -0.10062472, -0.12645385, 0.09701269, 0.09080029, 0.08903981, -0.19057687, -0.023232622, 0.014981549, 0.063045144, 0.10174434, 0.14811333, 0.10652612},
    {-0.06955048, -0.10997799, 0.084045775, -0.14237976, -0.12328469, 0.047697905, -0.04807149, -0.1370504, -0.03614491, -0.1336529, -0.058413617, -0.088876, 0.069119304, -0.023007574, -0.051621404, 0.0773896, -0.13685234, -0.109484755, -0.18321763, 0.03252657, -0.07589371, 0.04329962, 0.03966559, 0.035952933, -0.0041515995, 0.04327993, -0.016889555, 0.03635815, 0.11839092, -0.055717558, 0.03491995, 0.076106004, -0.066223174, -0.13063009, -0.16122942, 0.11932241, 0.02784644, 0.040131763, 0.06698146, 0.13002655, -0.121862486, 0.069082305, 0.0966521, -0.07758102, -0.09035619, 0.0528178, -0.00928419, -0.043077268, 0.08739814, 0.049374066, 0.009341744, -0.0039536525, -0.06028318, 0.09805774, -0.00680264, -0.032347135, -0.052812282, -0.07985193, 0.11522137, -0.17091773, 0.03316238, 0.09289448, -0.028677199, 0.16618806},
    {-0.2712469, 0.13478103, -0.07349209, 0.05439355, -0.075803794, 0.11619731, 0.14321323, 0.15338743, -0.011486988, -0.031303737, -0.023302875, 0.10871446, -0.042572882, -0.0335769, 0.04488579, -0.13510582, -0.10110515, -0.10566394, 0.014534435, -0.26797074, -0.18251061, 0.16948713, -0.17620993, 0.0073891687, 0.11391979, -0.1125734, -0.29204413, -0.09393395, 0.0040436494, 0.030317785, -0.08312652, -0.10086309, -0.020578919, 0.07422726, 0.13978383, -0.092313126, -0.13043739, -0.111953475, 0.13040961, -0.080518804, 0.03727442, -0.07606131, -0.04405634, 0.048279, 0.08287469, 0.16698335, 0.18779151, -0.11099561, -0.0044792625, -0.05085052, 0.31871006, 0.30169392, -0.01074806, -0.00407985, 0.022191932, 0.09877109, -0.23983413, 0.02128195, 0.029554741, 0.06738303, -0.0034806507, -0.21058697, -0.14567779, 0.041383542},
    {-0.11368329, 0.06532321, 0.013933344, -0.067068264, -0.09608066, -0.043512635, 0.117537364, 0.11579626, 0.12331334, -0.14033037, 0.008899741, -0.08555965, 0.05147022, 0.14573777, -0.09852383, -0.07268992, 5.1473187e-05, 0.022199158, -0.03527912, 0.009627884, 0.05649693, -0.06791946, -0.09471693, -0.039520063, -0.058918867, 0.009307859, -0.13574323, 0.07842866, 0.11260934, 0.076072074, 0.14565179, 0.20756567, -0.05930926, 0.10380821, -0.06036914, 0.027550507, 0.11179909, 0.00057789555, 0.02057236, -0.07585197, -0.013894161, 0.11429415, 0.04307153, 0.038963486, -0.02489621, -0.097911485, 0.0048557, 0.061132714, 0.12931708, -0.023561679, -0.22900215, -0.017240547, -0.0071330625, -0.07307036, -0.035988685, -0.06990418, 0.16480158, -0.0028531703, -0.020703575, -0.02709698, 0.1315267, 0.054080978, 0.1415257, 0.2443335},
    {-0.063952364, -0.05085289, 0.09727451, 0.03046302, -0.032064088, 0.05458096, 0.14349458, -0.16899028, 0.19969368, 0.040907755, 0.0075437645, -0.06378954, -0.028464317, -0.061665155, 0.051653396, 0.075770855, -0.009655307, 0.05487625, -0.18851231, 0.12591913, 0.039234955, -0.014450709, 0.0564436, -0.04968625, -0.24201249, -0.1324593, 0.016607769, 0.11403315, 0.17411683, 0.020401377, 0.12411746, 0.0985738, -0.05910608, -0.14955677, 0.046697423, 0.095026776, 0.13595693, 0.18705167, 0.05809796, 0.24779952, 0.04366815, 0.10750899, 0.22720622, -0.09205037, 0.08090847, -0.3194253, -0.212422, 0.027146256, 0.06728954, -0.15857098, -0.2681612, -0.17954005, -0.05679772, -0.05746881, 0.16197467, -0.05699125, 0.052007265, 0.021851975, -0.044724695, -0.09148844, 0.19882917, 0.10341966, 0.13322628, 0.14638866},
    {-0.05684685, 0.05361712, -0.09646282, -0.055512898, 0.14749193, -0.06463306, 0.028396184, -0.21292087, -0.14668514, 0.1232453, -0.22023913, -0.15804364, -0.019718869, -0.03094954, 0.0075229025, -0.020699037, 0.12202894, -0.19528164, 0.04647519, -0.062908135, -0.2936467, -0.18617253, 0.029432282, -0.00086743507, -0.12705868, -0.0019973598, 0.03867773, -0.1157742, 0.03156275, -0.1821121, -0.022085156, 0.07684043, 0.041706387, -0.22727038, 0.05865343, -0.050339427, 0.065562606, 0.037388492, -0.17868264, -0.101311274, 0.10356069, 0.07832304, 0.08323226, -0.13847275, 0.020641118, 0.14772865, 0.19258632, -0.16800429, -0.14034565, 0.015610343, -0.15892068, 0.2302129, -0.16930468, -0.12824452, -0.14339559, -0.23462078, 0.038637415, -0.238608, -0.08058767, -0.06587229, -0.07383411, -0.15410122, -0.06779207, -0.067034304},
    {-0.060959134, -0.0075732367, 0.026986979, -0.18521821, -0.280529, -0.07998552, -0.0028406973, 0.13404039, 0.013925584, -0.16896735, -0.07405213, -0.14083764, -0.07359707, 0.05411239, 0.07131538, 0.13010857, -0.06940837, -0.08628283, -0.24347202, 0.10632233, -0.009083107, 0.0809567, -0.04143139, -0.101278044, 0.15104732, -0.008621019, 0.09543189, -0.07831152, 0.039477404, -0.04379052, -0.009901674, -0.02447047, 0.023716629, 0.041454908, -0.22875416, 0.0604429, 0.101905346, 0.11479701, -0.10423869, -0.08954705, -0.09178268, 0.09587632, 0.06896012, 0.0789536, 0.0561496, -0.13162649, -0.11516753, 0.07448882, -0.022085993, 0.02473056, 0.023557384, -0.1265012, 0.028222604, 0.20353808, 0.15035923, 0.19532152, 0.10464734, 0.009711589, -0.018594759, -0.14575545, 0.050138637, 0.087217964, 0.18728766, -0.01542615},
    {0.17294006, 0.03443354, 0.020945933, 0.0025295643, -0.25969923, -0.041073807, -0.13623925, 0.063969575, 0.063900426, -0.25306842, -0.19023328, -0.043395754, 0.060947727, 0.08989997, 0.008378976, -0.054174885, -0.065680906, -0.0367914, -0.17177849, 0.11779484, 0.13652286, 0.12618138, -0.023147004, -0.054833233, 0.059905894, 0.05964079, 0.006764641, 0.07755265, 0.21345738, -0.02798663, -0.0023126802, 0.17412551, 0.023711463, 0.09102607, -0.1454793, 0.050109107, 0.29950866, 0.046748582, 0.007296219, -0.100667395, 0.07325983, 0.067970246, 0.024077132, 0.09149458, -0.08500024, -0.08133563, 0.0631727, -0.07344511, 0.046478443, -0.00044467903, 0.05992702, -0.19679736, 0.057915237, 0.11640179, 0.19908099, 0.1640089, 0.0120995445, -0.06571985, -0.019779759, -0.12513095, 0.02330252, 0.1015385, 0.2350496, 0.08825283},
    {0.11170748, -0.08148222, 0.04665301, -0.1483057, -0.2464614, -0.1479374, -0.1894402, 0.08728471, -0.06976285, -0.15108679, -0.085452065, -0.03298651, 0.010657257, -0.056247976, -0.12960787, 0.106818005, 0.018912712, -0.057030696, -0.03329086, 0.06586763, -0.1635467, 0.18752663, -0.12614273, 0.095296994, 0.0006035282, -0.024820667, -0.08470792, 0.0048585585, 0.19677648, -0.024158133, -0.068262696, -0.03224649, -0.012713105, 0.027496312, -0.20327553, 0.056512624, 0.21323352, 0.10050475, 0.15883672, -0.1003729, 0.13138075, -0.12760547, -0.048035387, 0.04596663, -0.059021708, 0.058065925, 0.17187944, -0.023292651, 0.03451792, -0.10491173, 0.19985124, 0.07254645, -0.06444593, 0.07558958, 0.12939544, 0.3800782, -0.30295366, 0.092202485, 0.11457558, 0.047923822, 0.11998048, 0.08082031, -0.05132851, 0.06436813},
    {0.016303215, -0.15846644, 0.34348163, -0.102006406, -0.348125, -0.23128279, 0.0033188309, 0.22036088, -0.13676135, -0.34958166, -0.07955296, -0.18219163, -0.12069937, -0.12090241, -0.06614083, 0.10309655, -0.15196414, 0.13622858, -0.14823955, -0.18107502, -0.055760976, 0.40119302, -0.2030977, 0.029741924, 0.14251423, 0.058781885, -0.14686508, 0.026685854, 0.09584673, -0.1616498, -0.14256035, -0.2099829, -0.027685285, 0.14220186, -0.26662126, -0.024632582, 0.083751276, 0.07088823, 0.073479876, -0.111473136, 0.015179796, -0.059197824, -0.024051078, 0.1947463, -0.0027639163, 0.010064074, 0.2866615, -0.0077447305, -0.019944303, 0.06410413, 0.55153215, -0.07003621, -0.0145710455, 0.24316324, -0.09431717, 0.34423566, -0.3617817, -0.08321261, 0.12857898, 0.012651197, 0.14540052, -0.15933898, 0.21534345, -0.13332538},
    {-0.088934936, 0.068390094, -0.09977154, -0.04408371, 0.08349997, 0.17142196, 0.25284815, 0.0121981725, -0.06787266, 0.045717444, -0.09479499, -0.075425096, 0.049517404, 0.08795924, 0.08281216, -0.07957167, -0.058652587, -0.12280556, 0.10871021, -0.038711034, -0.25740305, -0.041604076, 0.020462807, 0.18260697, 0.04509817, -0.04611448, -0.15075688, -0.1197609, 0.09820688, -0.13903967, -0.08494897, -0.2579108, -0.0829045, -0.012651423, 0.18034324, 0.013698406, -0.24750276, 0.039693184, -0.08926572, -0.13089328, -0.04846069, -0.15413433, -0.21743421, -0.04100753, 0.096527755, 0.02598557, 0.058074478, -0.16072087, -0.23022413, -0.2298713, 0.055114478, 0.20088555, 0.0048088054, 0.057675146, 0.0017437931, -0.06165273, -0.15165481, -0.001023519, 0.013563831, 0.09380812, 0.14290212, -0.278937, -0.17539626, -0.020524094},
    {-0.014127078, 0.16083938, 0.04557538, 0.09791482, 0.020613018, 0.20053467, 0.22125629, -0.07718248, 0.01878937, -0.11051132, 0.070661835, -0.0044683083, 0.04653106, 0.06158469, 0.1925741, -0.24303745, -0.09975857, -0.13938802, 0.061120458, -0.11812125, -0.2504194, -0.02298323, -0.00939618, -0.029762885, 0.02205064, -0.12625127, -0.112728484, -0.21922459, 0.09556645, -0.034028903, -0.048018385, -0.06864084, -0.023406478, -0.040712766, 0.1256306, 0.13823393, -0.23229629, -0.011005161, 0.114391215, -0.13935022, -0.14345092, 0.006640663, -0.04418619, 0.1366926, -0.026365818, 0.101353206, 0.05845972, -0.27589342, 0.059623085, -0.16618626, -0.09053201, 0.0034229376, -0.045135476, 0.03073762, 0.00024199966, -0.10043224, -0.06590416, 0.08297216, -0.022827802, 0.08344159, 0.04625087, 0.023704672, -0.011583093, 0.04483439},
    {-0.04018168, -0.061222453, -0.018812621, 0.06834015, -0.24694754, 0.060812905, 0.06805517, 0.06993949, -0.015593806, -0.19030437, -0.21716996, -0.11454595, 0.093464315, -0.08547134, 0.020497056, 0.13936502, -0.23599327, -0.10417604, -0.098342605, 0.099691026, 0.19475028, 0.07430275, -0.07567309, -0.093036056, -0.11739748, -0.051042747, 0.14857161, 0.12782939, 0.06947064, -0.008545559, -0.028717346, 0.032832358, 0.060917553, 0.0926905, -0.18026745, 0.080452584, 0.24003159, 0.0020003421, -0.12973073, 0.156619, -0.019411199, 0.08625498, 0.22518945, 0.07586493, -0.09606752, -0.05049209, -0.13035618, 0.17253438, 0.12925947, -0.087229535, -0.0037961463, -0.15106368, 0.07147277, 0.09704559, 0.14876759, 0.12343613, 0.058174945, -0.046800748, 0.049470067, -0.05002752, 0.021256851, 0.20524783, 0.07265361, 0.26601693},
    {-0.0047859387, -0.10158978, -0.27810702, -0.05157788, 0.2393123, 0.060376465, 0.17921458, -0.1930465, -0.15187275, 0.13347822, -0.06925902, -0.073109195, 0.20881876, -0.09340986, 0.076508425, -0.16809551, 0.2549858, -0.11003545, -0.104637094, 0.10952455, -0.18608391, -0.30892047, 0.24014744, -0.17659712, -0.21447615, 0.025325159, 0.19983616, -0.21482307, 0.005089399, -0.0490103, 0.026125535, -0.023428185, -0.16414283, -0.2278309, 0.14224046, 0.022679223, -0.07918818, 0.054503, -0.07679966, -0.10629323, 0.067985214, 0.1622967, 0.11306896, -0.15687703, -0.044483762, -0.11566499, 0.018796174, -0.09715449, 0.021732058, 0.12575182, -0.26794782, 0.03925144, -0.10178201, -0.14149992, 0.02859074, -0.21632835, 0.31830493, -0.16934307, -0.21420479, -0.011289842, -0.15080564, 0.121980414, 0.032620333, 0.08733787},
    {-0.20231855, 0.011173659, -0.12010174, 0.24809591, 0.3007406, 0.0773068, 0.26239845, -0.2619949, -0.13985777, 0.09147065, -0.14794643, 0.053677447, 0.11353095, 0.020009097, -0.046973366, -0.017044373, 0.23815991, -0.3092793, 0.19175872, -0.01111441, -0.1536386, -0.10749543, 0.23739682, 0.009273735, -0.115787655, 0.039041564, 0.085687846, -0.18250367, 0.119401015, 0.06329014, 0.0091875605, -0.14138813, -0.058357257, -0.22599182, 0.12957712, 0.08280687, -0.23190641, 0.15374345, -0.024205996, -0.056483213, 0.009157548, -0.08306969, 0.034855157, 0.050134614, 0.018047182, 0.054373037, 0.012609711, -0.13033125, 0.040953424, -0.10680152, -0.53153926, 0.053013496, -0.18213597, -0.11345495, 0.0354269, -0.48793027, 0.15746982, 0.009933281, -0.18210492, -0.12752047, 0.1308795, -0.0277996, -0.039589867, 0.046103187},
    {-0.043997515, 0.040454537, 0.16298187, -0.17393635, -0.22053525, 0.03738425, -0.04083624, 0.10517464, 0.052835766, -0.21521813, -0.18143499, 0.013019619, -0.090834066, -0.10509268, -0.08824674, -0.06670133, -0.043405574, 0.039160866, -0.06008115, 0.05258036, 0.12668703, -0.0686597, -0.14269549, -0.10772361, -0.033563044, 0.04865593, -0.032430023, 0.053370938, 0.06645441, -0.06984395, -0.101948336, 0.05707963, -0.09386163, 0.0044596563, -0.22694466, -0.10283359, 0.15511547, -0.05165153, -0.12670954, -0.005986524, 0.06567521, -0.07863996, 0.13848895, -0.014740251, -0.047476165, -0.07966218, -0.03947238, 0.05029077, 0.010712748, -0.011367093, 0.010231151, -0.10992621, 0.07319993, -0.0522168, 0.09442242, 0.024105897, -0.085269794, -0.027952667, 0.052020844, -0.11766604, -0.0045880005, 0.10974104, 0.17610218, -0.032698806},
    {-0.007878627, 0.060178228, -0.01751387, -0.043774705, -0.14578676, -0.047201317, 0.08996289, -0.13801846, 0.083451904, 0.038879372, 0.09062819, 0.009183242, 0.027172124, -0.05603763, 0.022710277, 0.06887824, -0.219941, 0.0010107257, -0.16630837, 0.16399406, 0.14311777, 0.11442119, 0.036503337, -0.11457928, 0.037751473, -0.13121998, 0.060551196, 0.08752995, 0.22789983, -0.014026313, 0.027344415, 0.11316354, -0.051099274, 0.03394152, -0.061028045, 0.12794529, 0.03973224, -0.045710642, 0.020185646, -0.043300778, -0.09618615, 0.09003208, 0.06984686, 0.067938864, 0.0061963294, -0.09393503, -0.13855056, -0.05188394, 0.10093276, 0.09419651, -0.24501552, -0.107807145, 0.0367529, -0.051310632, 0.23365633, 0.02082288, 0.17772053, 0.04672988, 0.05586591, -0.03318561, 0.18857126, 0.057911787, 0.02950442, 0.15042551},
    {0.119248666, -0.13409767, 0.3468919, -0.16162239, -0.19024512, 0.039085045, -0.018497262, 0.13469203, 0.020301588, -0.22168773, 0.059975892, 0.015209391, -0.009454489, 0.044262018, -0.016349975, -0.014954611, 0.014448569, 0.15729906, -0.043721125, -0.027223507, -0.0077305487, 0.24625424, -0.14033931, -0.039742697, 0.054744568, 0.04955643, -0.09405842, -0.11098153, 0.13725728, -0.12359989, 0.03089218, -0.05486781, 0.08601575, 0.14207803, -0.113305844, 0.02160545, -0.013621951, 0.027102388, -0.014620162, 0.034737144, 0.096553795, -0.09503178, 0.05465085, 0.016959254, 0.01217127, 0.15385295, 0.1141001, 0.016030982, 0.019396069, 0.05416163, 0.44047296, -0.063145, -0.079358734, 0.13037738, -0.011728552, 0.30275002, -0.16142286, 0.04438158, 0.12579405, -0.09662008, 0.024150424, -0.061146088, -0.040431514, -0.13292684},
    {-0.21565092, 0.045230497, -0.056816824, 0.046508987, 0.018517809, 0.18048902, 0.17430839, -0.03859679, 0.02091567, -0.08923381, -0.15316932, 0.036699433, 0.09976365, -0.019709371, 0.13004422, -0.10856013, 0.0021095097, 0.053180028, -0.06310177, 0.09082967, -0.03395663, 0.07016617, 0.15616257, 0.04329691, 0.047020063, -0.17337777, -0.07680874, -0.041207645, 0.16749571, 0.09012312, 0.026901046, -0.11700773, -0.07912308, -0.009613232, 0.11885581, 0.06454449, 0.046061225, -0.031062312, -0.17494649, 0.017230598, 0.011915957, 0.035642777, -0.02941617, 0.097128585, -0.034045637, -0.1547681, -0.07013166, -0.24826643, 0.16533205, -0.10099245, -0.16545144, -0.07738365, 0.03243416, 0.0472863, 0.040725924, -0.017087817, 0.16070688, -0.11760404, -0.077843755, -0.21092027, 0.12841979, 0.1614857, 0.044694, 0.1531183},
    {-0.062648416, 0.034662228, -0.25261942, -0.010214392, 0.17390126, -0.0009260135, 0.057395525, 0.0062421425, -0.1265439, 0.17079651, -0.112919316, -0.16649042, 0.05936357, -0.041966427, 0.0992042, -0.12315644, 0.28613102, -0.18923298, 0.10293023, 0.09852374, -0.20864794, 0.02333102, 0.1593174, -0.15802556, -0.075104766, 0.08270442, 0.11149556, -0.26390326, -0.11382709, -0.12950905, -0.012993611, -0.08448663, -0.09401865, 0.012512523, 0.12567544, -0.043620437, -0.06182165, 0.063608155, -0.056245126, 0.05758602, 0.1294995, 0.057279345, 0.009871792, -0.18447977, 0.07169584, 0.2026114, 0.070917726, -0.010098086, 0.097971514, 0.07289521, -0.19978416, 0.22905242, -0.16608995, -0.0800732, -0.06402486, -0.37539002, 0.024026133, -0.1864806, -0.09035543, -0.017911496, -0.06928679, -0.08954889, -0.08764794, -0.12726349},
    {-0.19639224, 0.13033606, -0.09676427, -0.06674668, -0.110581405, 0.0595962, 0.022755938, 0.096801616, -0.12023759, -0.0005770235, -0.044619896, 0.05610716, 0.1333401, 0.15874563, 0.018344296, 3.4692028e-05, 0.05784544, 0.058983147, 0.016156571, -0.0004132647, -0.10388231, 0.06781519, 0.0066070566, 0.06234855, -0.015043684, -0.023444278, -0.012790521, -0.0012700686, -0.08033828, 0.0030188607, 0.08666528, -0.063140824, 0.11454327, 0.09110991, -0.037543368, -0.01330299, 0.09141688, -0.07796482, -0.06525866, -0.006843676, 0.014630895, -0.112078086, -0.08877622, 0.113465585, -0.07761982, -0.07671941, 0.096733525, -0.05215325, 0.034185134, -0.06759305, -0.12455904, -0.11045475, 0.023543222, -0.09928407, -0.04109861, 0.0882031, 0.044510823, -0.10028756, 0.03445973, -0.006809467, 0.09276672, -0.06746668, 0.026217522, 0.09041349},
    {-0.02402459, 0.0053140926, 0.22663312, -0.06309556, -0.4413451, -0.1387305, -0.11360712, -0.014775452, 0.038015615, -0.24564496, -0.053390756, -0.027939884, 0.16129535, -0.1656964, -0.042035688, 0.05511306, -0.06183082, -0.053376216, -0.15579924, 0.019280894, 0.019437345, 0.23784365, 0.07882044, -0.021214893, -0.050557982, -0.00096869376, 0.13799736, 0.09966319, 0.21978036, -0.14273313, -0.115753464, 0.014500528, -0.1710211, 0.09962309, -0.13113093, -0.00033222698, 0.2757893, -0.070475884, -0.1821046, -0.1325436, -0.010430521, -0.03209986, 0.21175787, 0.04918795, -0.13334796, -0.05695423, 0.12804076, -0.0065986468, 0.1515982, 0.0901645, 0.19233581, -0.28355396, -0.16520959, -0.050804127, -0.023175163, 0.18263187, -0.029653862, 0.06136704, 0.008471122, -0.19924785, -0.064822175, 0.07273114, 0.17682758, 0.22013374},
    {-0.26270851, 0.03605761, -0.2898393, 0.075424224, 0.18788226, -0.101205416, 0.20457998, -0.22871557, -0.040705398, 0.1481202, 0.022962598, -0.15286155, 0.16528746, -0.063973226, -0.041095335, -0.15989281, 0.017620267, -0.070167996, 0.22369815, -0.161239, -0.122328326, -0.04972078, 0.16150749, -0.053765036, 0.022543954, 0.020971483, 0.008891766, -0.19829041, 0.05288749, -0.076655634, -0.01533122, -0.043553773, -0.04606966, -0.004524059, 0.15583988, 0.021843223, -0.048491444, -0.0011650514, -0.12284497, -0.10756945, 0.16064054, -0.08866407, -0.014248768, -0.13185069, -0.16038606, 0.0009632648, 0.23275803, -0.26610607, -0.054605965, 0.046688333, -0.14247629, 0.07915512, -0.15277547, -0.11852379, 0.0018486632, -0.25153792, -0.037833977, -0.086017035, -0.044614457, -0.09299677, 0.028979868, -0.06950785, 0.058303885, -0.0716847},
    {0.037514042, -0.020190984, 0.29101178, -0.23032294, -0.39167964, 0.036269218, 0.012643193, -0.008891646, -8.7394175e-05, -0.21043366, -0.042681422, 0.10057547, -0.05998629, 0.08117563, 0.1109411, 0.035007562, -0.1821656, 0.04845134, -0.13354227, 0.05884126, 0.044415694, 0.2745591, -0.116707504, 0.06475692, 0.057724927, 0.023193508, -0.009780317, -0.061624773, 0.051663976, -0.06599852, -0.037760526, 0.07609802, -0.15373708, 0.013410579, -0.12110038, -0.091814585, 0.2744393, -0.08882824, -0.17147738, -0.2552327, -0.0650404, -0.078465916, 0.16345885, -0.025429139, -0.04446512, 0.19895816, 0.19984159, 0.0436497, 0.00020015045, 0.023935255, 0.29761043, -0.10651942, -0.12763456, 0.16804093, -0.14925013, 0.29093316, -0.26634672, -0.121119015, 0.15877295, -0.043739222, 0.10212529, 0.029416176, 0.16791494, 0.050206754},
    {-0.021523243, 0.1091532, -0.18270294, 0.04971312, 0.242705, 0.08363993, 0.07118049, 0.020132987, -0.17718601, -0.046306178, -0.18255161, -0.13053834, 0.09217808, -0.08941903, 0.06010259, -0.034124546, 0.06989236, -0.028202355, 0.045864515, 0.08128956, -0.2228954, -0.0013602406, 0.20206493, 0.081936255, 0.019828241, -0.0012729275, -0.12171294, -0.19486757, 0.027980398, -0.012625897, -0.05893491, 0.07231449, 0.023158107, 0.0006257657, 0.1232005, 0.05650584, -0.121700056, -0.017566454, -0.05125323, -0.0021934176, 0.06173322, 0.020042032, 0.12831174, 0.012628992, 0.07320424, 0.043816462, 0.10576023, -0.0977747, -0.18388245, 0.0921565, -0.21155246, 0.22048394, -0.101868294, 0.03715347, 0.021615798, -0.31110597, -0.022393294, 0.008727752, -0.09584808, -0.0657003, -0.16918002, -0.0184217, 0.04500239, 0.004867934},
    {0.036758162, -0.1465222, -0.11532896, -0.077487595, 0.06916852, -0.15998295, -0.2273202, -0.08626679, -0.2025786, -0.13543929, -0.23449261, -0.13600264, 0.044737644, -0.20967764, 0.048038162, 0.13376206, 0.11372029, -0.22830231, 0.1322227, -0.11095179, -0.08792045, 0.119099595, 0.014763303, -0.11989501, -0.13291241, 0.0799181, -0.12708573, -0.27781817, -0.07485687, -0.14698961, -0.32729936, -0.12855415, 0.0008485546, -0.0033220039, -0.12651856, -0.20576803, 0.19758, 0.053009123, -0.0057936623, -0.18190989, 0.06552982, 0.12435905, -0.009377113, 0.016431354, -0.08493865, 0.13873453, 0.23138386, 0.08780681, 0.13131684, 0.047588326, -0.0009917488, -0.098731264, -0.1996949, -0.08045898, -0.07073887, -0.14076665, -0.16103967, -0.23725764, -0.014183866, -0.13230284, -0.12859689, -0.030715037, 0.03140585, -0.12017755},
    {0.09130957, -0.08437296, 0.15720358, 0.03233867, -0.192411, -0.19034803, -0.048123837, 0.038555536, 0.036781635, -0.17612836, -0.057500836, -0.028158259, -0.12190175, -0.1829405, -0.14047343, -0.014051274, -0.2362791, -0.0627692, -0.15441097, 0.10071799, -0.19775778, 0.15958004, -0.23907371, 0.04467926, 0.23996131, -0.09988563, -0.03196385, -0.13178891, 0.11940007, -0.056908205, -0.060573447, -0.059125125, 0.08579009, 0.14115302, -0.12195638, 0.06689314, 0.016009336, 0.037761852, 0.1862253, -0.116339065, 0.15683983, -0.26665413, -0.042174626, 0.046399225, 0.11872182, 0.20349012, 0.19916455, -0.18160218, 0.13650951, 0.014495786, 0.36550698, -0.13886155, 0.046150908, 0.18407251, 0.045005687, 0.32634673, -0.13236691, 0.118164435, 0.067452334, -0.02481903, 0.12473781, -0.09007625, 0.10558442, -0.10441281},
    {-0.06274263, 0.021430498, 0.11670635, 0.066187926, -0.29804096, 0.010179374, 0.019233748, 0.3549558, 0.1771543, -0.019306393, 0.21761593, 0.08329973, -0.15507725, 0.1598818, -0.038364466, 0.07941011, -0.3084079, 0.31267834, -0.107300706, -0.19409132, 0.020442635, 0.19792153, -0.46100435, 0.15602204, 0.13971396, -0.2593568, -0.11790991, 0.3639407, -0.073360406, 0.094659194, 0.1603238, -0.03340735, -0.011168174, 0.34969833, -0.017172502, -0.020360036, 0.14679454, -0.2155556, 0.32543623, 0.020547664, -0.0787556, -0.29341698, -0.18110333, 0.15430367, 0.27886152, 0.053275228, -0.24557891, 0.21294172, -0.12256406, -0.18868478, 0.31758428, 0.009831457, 0.22897862, 0.53547883, 0.101519756, 0.40952027, -0.15032679, 0.23214102, 0.35958984, 0.1110895, 0.1762663, -0.107535295, -0.020082776, 0.19189058},
    {0.012692981, 0.10186054, 0.1779042, 0.02426734, -0.17305644, -0.012400062, 0.024067968, 0.286641, 0.06095529, 0.021614136, 0.2815032, 0.28580266, -0.27721366, 0.06973075, 0.034180213, 0.06271603, -0.19130829, 0.1936564, -0.1426306, 0.0033890642, -0.14198822, 0.25631303, -0.37954375, 0.032765385, 0.27853692, 0.012428027, -0.17973223, 0.2541682, -0.10289421, 0.2870573, 0.10059542, 0.092563234, 0.2068646, 0.27001244, 0.157642, 0.2094416, 0.061616514, -0.0994513, 0.25197065, -0.0068120677, -0.08661288, -0.25820062, -0.02848489, 0.32093993, 0.3258018, 0.08296866, -0.08872403, -0.026047112, 0.0076412857, -0.09424411, 0.15393999, 0.14561047, 0.09890869, 0.44418323, 0.001917292, 0.358358, -0.19856402, 0.0977334, 0.23638655, 0.2002856, 0.09473005, -0.011293801, -0.13046497, 0.036610693},
    {0.08081206, 0.1659715, -0.015684865, 0.05311561, 0.040690623, -0.07641477, -0.18661763, 0.027410565, 0.107877515, 0.18665223, 0.18201075, 0.13517416, -0.23838459, 0.0133890845, 0.025749749, 0.08517365, 0.03541591, 0.16406648, 0.09023486, -0.06492999, -0.090098545, 0.043125868, -0.11253712, -0.048054166, 0.10802438, -0.13311568, -0.119827785, 0.11121719, -0.29902714, 0.17437477, 0.15130953, 0.057770792, 0.031215256, 0.2212082, 0.0234609, -0.06258598, -0.06836549, -0.19217016, 0.052932292, 0.13623917, -0.10514609, -0.1271129, -0.19197436, 0.12571639, 0.12493118, 0.13936692, -0.24495028, 0.13388102, -0.24479021, -0.055575114, 0.30261725, 0.15492529, 0.15472268, 0.09816258, -0.083122954, 0.13640577, -0.015135481, 0.15424478, 0.037897464, 0.20495728, 0.10067543, -0.18037055, -0.15813513, -0.06564542},
    {0.038829647, 0.0108699985, 0.0063510304, 0.049689464, 0.110777706, 0.06597449, 0.058483575, -0.18970755, -0.034773584, 0.12073577, 0.15697137, 0.047398888, 0.074410826, -0.029982876, -0.010302879, 0.14183205, -0.011881128, -0.0810228, -0.0036176983, 0.14910436, -0.0964277, -0.026155453, -0.0031325365, -0.026391488, -0.024097972, 0.017074032, 0.21864778, -0.026458306, -0.15677048, 0.047737543, 0.009254376, 0.14648229, -0.030736363, -0.21190746, 0.11024513, 0.18890253, -0.012023876, 0.1212985, -0.035030257, 0.1621146, -0.008154414, -0.04716032, -0.13695516, -0.0538776, 0.086069405, -0.06297368, -0.107425, -0.0950946, 0.08882897, 0.07734422, -0.08064578, -0.21585865, 0.01410439, -0.1588766, 0.084722616, -0.22285558, 0.09878316, -0.07680193, -0.19742039, 0.12215844, 0.0053459844, 0.17230079, -0.04648639, -0.0051811826},
    {0.12004428, 0.20091876, -0.1436351, -0.06405081, -0.11088545, 0.0012320759, -0.15777786, 0.21211284, 0.118269354, 0.070628256, 0.11785239, 0.0029408692, -0.035067163, 0.17935674, 0.16145349, 0.017996691, 0.07146856, 0.17200913, 0.13355483, -0.08910532, 0.05548706, -0.041559048, 0.026930546, 0.13708137, 0.17020327, -0.012369426, -0.16650014, 0.17785178, -0.043702573, 0.142956, 0.1303593, 0.13971533, 0.11218609, 0.16045529, -0.03891166, -0.02633368, -0.07707311, -0.0480801, 0.19094494, 0.03531356, -0.060091965, -0.15496354, -0.003948936, 0.17722632, 0.1236598, 0.098297924, -0.04472757, -0.07813456, -0.11886355, -0.045176245, 0.16766702, 0.03421174, 0.18291289, 0.03454722, -0.063145526, 0.052987438, -0.22094333, 0.13618293, 0.19516459, 0.19390267, 0.04492008, -0.15293106, -0.17346989, 0.08712669},
    {0.07406483, -0.09040198, 0.13940336, 0.0072992723, -0.16303682, 0.071007945, -0.055083726, 0.023483083, 0.13415396, -0.138152, 0.09119269, -0.013229408, 0.0019642587, 0.11198833, -0.02350788, 0.17259462, 0.051556695, 0.04722677, 0.10783903, 0.0045600943, -0.046860352, 0.13401723, 0.09601465, 0.018530387, 0.10837883, 0.0026863012, 0.03247592, -0.022684937, 0.060829245, 0.1479674, 0.0946805, 0.1120776, 0.033104453, -0.10082592, -0.061765388, 0.10233681, 0.08269975, -0.14936064, -9.198166e-05, 0.17195827, 0.070112504, 0.075143896, -0.062998794, -0.0779908, -0.056351148, 0.08674005, -0.08672226, -0.04805498, -0.02278207, 0.0817627, 0.19206217, -0.1925622, 0.0466222, 0.1744472, 0.058686055, 0.003912979, 0.060163114, 0.06989576, 0.065128505, 0.08126706, -0.07717963, 0.08435017, -0.0975562, -0.0008484418},
    {-0.03677131, -0.12595469, -0.024903765, -0.07632632, -0.26259747, -0.013447013, -0.14619352, 0.24570604, -0.11410215, -0.00062164466, -0.02133259, 0.038971685, -0.04572794, -0.06925855, 0.08688174, -0.06068298, 0.016841749, 0.0129113905, -0.041030213, -0.11758313, -0.377388, 0.09004307, -0.2277041, 0.08998304, 0.3202376, -0.035500105, -0.1590156, 0.035897624, -0.2173449, 0.01906017, -0.21924117, -0.112979695, -0.01319695, 0.13996588, -0.20072961, -0.1940517, 0.08996181, -0.17690508, 0.16012959, -0.19289863, -0.07608822, -0.08536179, -0.043783456, 0.01437102, -0.108915664, 0.2501088, 0.16696587, 0.016077638, 0.012017209, 0.1305517, 0.39362088, 0.1812017, 0.091264345, 0.14536881, -0.33116633, 0.3842877, -0.3686143, -0.015500227, 0.19409162, 0.21637014, -0.2528689, -0.2618818, -0.038392425, -0.2763544},
    {-0.089212045, 0.14100872, 0.10862246, -0.04110113, 0.04689592, -0.016246125, 0.086387314, 0.1747523, -0.015883002, 0.21787684, 0.21355106, 0.14315102, -0.1382747, 0.14420946, 0.16740604, -0.1480979, 0.114385255, 0.089980245, 0.081543334, 0.023832597, -0.14211468, -0.017842358, -0.009229716, 0.08328618, 0.10025657, -0.09152161, -0.09377905, -0.054158147, -0.15234983, 0.0029679006, 0.19694383, -0.17972736, 0.20159861, 0.049028754, 0.034721132, 0.014929031, -0.05662988, -0.11493448, 0.23867631, 0.051780317, 0.010168836, 0.018443042, -0.1617955, 0.09909472, 0.08134376, -0.05885962, -0.1901843, -0.027192615, 0.044095136, -0.04821029, -0.11170156, 0.23743619, 0.0003503748, 0.03161426, -0.12784259, -0.048417658, -0.09072172, 0.067265645, -0.046819374, 0.07275542, -0.10366186, -0.123151995, 0.014935998, -0.14552718},
    {-0.122124955, 0.12096111, -0.29422554, 0.16366062, 0.44464394, 0.21784577, 0.16062354, -0.035790343, 0.07337272, 0.19744447, 0.026453866, 0.21377212, -0.05869961, 0.08401221, 0.19912927, -0.057845548, 0.10592944, -0.06903164, 0.20978394, -0.07451851, -0.2597947, -0.053950332, 0.046963014, 0.2263984, 0.07358165, -0.070857786, -0.10774818, -0.03489143, -0.3119219, 0.046456918, 0.047275703, -0.13285272, 0.14132097, 0.022412732, 0.262103, -0.036384534, -0.37747157, -0.04449385, 0.01592433, 0.017578535, -0.05555294, -0.010561618, -0.25241214, 0.09376197, 0.16629797, -0.035968482, 0.016654553, 0.043827042, -0.16635029, -0.049916256, -0.31053865, 0.093415424, 0.08910831, -0.107639484, 0.026385574, -0.10810123, -0.00034439724, 0.15330856, -0.10739496, 0.09925122, -0.005507336, -0.009577247, -0.31577685, -0.20047654},
    {0.07851561, -0.059981428, -0.08273066, -0.15840852, 0.07805248, 0.13071193, -0.07198598, 0.26968557, 0.17272621, 0.10800101, 0.2534128, 0.20033558, -0.20692179, 0.01799211, 0.13370652, -0.028364716, -0.06256121, 0.08858645, -0.08188992, -0.11366946, 0.03783793, -0.08491584, -0.16563125, 0.10257461, 0.14944169, -0.1173357, -0.14634836, 0.07978754, -0.042763844, 0.13758676, 0.028360255, 0.1563552, 0.13137835, 0.19127125, 0.13698483, 0.058974493, 0.05484285, -0.08502143, 0.1823737, 0.14617291, -0.21183912, -0.12173324, -0.02687554, 0.06302036, 0.1788743, -0.07712083, -0.14513205, 0.09903055, 0.0066320794, 0.029541072, 0.23452584, -0.055416048, 0.13701636, 0.02099956, -0.022387292, 0.124847464, -0.2905888, -0.058081016, 0.17555742, 0.22307761, -0.113730006, -0.13033459, -0.16000551, -0.11305986},
    {-0.012993248, 0.070256375, 0.025515797, 0.042678565, 0.050684452, 0.14573182, 0.15188591, -0.021577064, 0.08489328, 0.21885033, 0.15606484, 0.20536911, -0.030325342, 0.20198007, 0.06012613, -0.08442573, 0.12060503, 0.15988071, -0.04333962, -0.14433824, -0.17294437, -0.12970869, -0.009462348, 0.10258961, -0.013546437, 0.102810755, 0.0766015, -0.065893054, 0.048770793, 0.03440925, 0.0856395, -0.0018166663, 0.07655665, -0.051939227, 0.14797637, -0.07693955, -0.19270243, 0.060215723, 0.09657677, 0.110101245, -0.112733655, -0.12325994, -0.11555415, 0.09583637, 0.04922801, 0.030607855, -0.041087758, -0.14124279, -0.07099833, 0.06749635, -0.14049879, -0.023195297, 0.013629105, 0.07881299, 0.10178008, -0.15272884, 0.102839865, -0.17384182, 0.043882966, -0.03088589, 0.004271851, -0.010447872, 0.05677328, -0.12019351},
    {-0.0012861284, 0.14632393, 0.15601864, -0.056456253, -0.031976026, -0.14386876, 0.043807935, 0.049398962, 0.042027846, 0.05124305, 0.17507237, 0.10627477, -0.0155350445, -0.07216407, 0.10833692, -0.06851453, -0.034893703, 0.012518114, 0.055413283, -0.02618005, -0.04734438, -0.01699575, -0.01552392, 0.10067355, -0.06908624, -0.030878864, -0.09443139, 0.21516843, -0.16380012, 0.021272471, -0.021548238, -0.039492708, -0.09357029, 0.14581472, 0.05044005, 0.04469114, 0.050042793, 0.09612442, 0.09362523, -0.08316291, 0.03125931, -0.016534677, -0.015111834, -0.06840613, 0.18119778, 0.08300638, 0.02629157, -0.012633264, -0.1217876, -0.0195029, -0.021391328, 0.16543467, -0.03825602, -0.044173695, 0.031022124, 0.120744035, 0.11284985, 0.043955773, 0.13318352, 0.16949673, -0.01539694, -0.03435532, 0.04320928, -0.024967141},
    {-0.054518122, 0.10277497, 0.028721223, -0.1072296, 0.0053948965, 0.058449436, -0.06406131, -0.026990166, 0.015560529, -0.058693472, 0.09698639, 0.06963267, -0.051622145, 0.12140688, 0.021478988, -0.07825977, 0.1171461, 0.069486335, -0.021564092, -0.1079401, -0.119238555, 0.032679748, 0.043648418, -0.024148518, 0.11474987, -0.12359086, 0.0730791, -0.0151597755, -0.023534702, 0.1564822, 0.033298083, 0.0051126564, -0.07398206, -0.04363949, -0.106144585, 0.0283269, -0.054574743, 0.06426159, 0.0049166423, 0.12715961, 0.10523008, -0.08512858, -0.06752037, 0.07844567, 0.010329002, 0.05904652, -0.0640863, 0.015874075, -0.1168033, 0.0526935, 0.044041775, 0.110231414, -0.047239367, 0.05718801, -0.16000383, 0.14689651, 0.08402242, 0.010199377, 0.039884362, 0.062611364, -0.17005199, 0.06840996, -0.023113415, -0.022923676},
    {-0.09807699, 0.16172637, -0.19768131, 0.18085736, 0.23210597, 0.30155063, 0.10216238, -0.0025343401, 0.05399698, 0.24717574, 0.16733968, 0.13168499, -0.03337769, 0.2550959, 0.2179085, -0.11220132, -0.014348735, 0.21453741, 0.022581216, 0.093056194, 0.05142745, -0.21518485, 0.08913644, 0.22812633, 0.0066704447, -0.20930181, 0.00017115162, 0.061216716, -0.17344461, 0.14214188, 0.21243522, -0.18648346, 0.14375909, 0.084504634, 0.16689663, -0.049108874, -0.24546462, -0.18367669, 0.2935462, 0.07652007, -0.2559918, -0.016423287, -0.034475658, -0.004142483, 0.015024737, 0.01651672, -0.13235703, 0.12413235, -0.06124288, -0.21161482, -0.2365661, -0.0694985, 0.0020025428, 0.010301655, -0.029452194, -0.07909608, 0.19465932, 0.03793539, -0.2009133, 0.15953656, -0.0673575, 0.11699637, 0.029074294, -0.15706281},
    {-0.039179325, 0.08264262, 0.16204832, 0.10816085, -0.2646434, 0.23632269, -0.052614138, 0.25449485, -0.0035518159, 0.041127607, -0.029209757, 0.044602737, -0.18539247, 0.21495077, 0.19007343, 0.08376164, -0.10489229, 0.14476113, -0.10121489, -0.09450009, 0.0094075985, 0.09622791, -0.28646204, 0.085963175, 0.22300193, -0.063081525, -0.23213398, 0.2842648, -0.1068841, 0.18491323, 0.18719253, -0.1335808, 0.1633428, 0.22672442, 0.06432334, -0.08237837, -0.059531573, -0.106468305, 0.15926227, 0.04146922, -0.1818411, -0.33700874, 0.022962235, 0.043483596, 0.12738407, 0.18243738, -0.08561608, 0.07915165, -0.017146852, -0.1290699, 0.21115486, -0.09817407, 0.07030088, 0.286384, 0.024530038, 0.35842034, -0.087566, 0.17442141, 0.26196486, 0.05140338, 0.12348794, 0.044436194, -0.0028368495, 0.08719353},
    {0.02658188, -0.04651727, 0.048992768, -0.36146998, -0.34607223, -0.041489277, -0.18551102, 0.24254511, -0.13197774, -0.14084762, 0.19305214, 0.019637095, -0.17049891, -0.069507405, -0.07195272, 0.021477422, 0.15212299, 0.05796485, -0.17894828, -0.18695469, -0.27602267, -0.0062890155, -0.15422581, 0.3134176, 0.4946988, 0.07853698, -0.1745197, -0.16247876, -0.044525836, 0.006170745, -0.13831727, 0.040929098, -0.08335821, 0.20391838, -0.045438517, -0.23607714, 0.22027777, -0.2048257, 0.036459535, -0.27802244, -0.057193354, -0.004050448, -0.035061084, 0.23816153, 0.16302003, 0.37727493, 0.05488328, -0.03974757, -0.19972047, 0.09768995, 0.4503834, 0.09634242, 0.24635173, 0.38644686, -0.19996792, 0.499387, -0.42818743, -0.20983893, 0.11971445, 0.057855923, -0.10409992, -0.42610234, 0.016992722, -0.20741132},
    {-0.13794693, 0.13127989, -0.0606494, 0.0712867, 0.3377334, 0.07495583, -0.042990267, -0.090792164, -0.011664586, 0.07385362, 0.11094334, 0.09751646, -0.19196415, 0.039913606, -0.011889847, -0.01349299, 0.020173952, -0.08754243, -0.004922202, -0.22666045, -0.23650299, -0.21388675, -0.014289841, 0.011400221, 0.024700588, -0.103630245, 0.07071529, 0.0134026725, -0.19791748, 0.09300772, 0.12224097, 0.006991276, 0.06692484, 0.058112588, 0.15959913, 0.044927943, -0.1696295, -0.0132615855, 0.07633588, 0.039914522, -0.16789556, -0.075767785, -0.104833424, -0.038938127, 0.11376645, -0.087278865, -0.020689044, -0.14919405, -0.18780942, -0.008893534, -0.10118907, 0.12491475, 0.08566945, 0.03871711, -0.02462045, -0.10393987, -0.20215608, -0.10868737, 0.12356852, -0.008048625, 0.042452298, -0.15928797, -0.24328567, -0.1499826},
    {-0.047162186, 0.14155512, -0.094942845, -0.07025195, 0.21805163, 0.2259032, 0.16366349, -0.0055310824, 0.037728153, 0.31384146, 0.1915627, 0.2086772, -0.002550128, 0.24114603, 0.18582147, -0.12095531, 0.1852997, -0.0013729983, 0.17513342, -0.05875654, -0.18665828, -0.12364411, -0.022402594, 0.22623873, -0.08626345, -0.09409888, 0.0021748366, -0.12111297, -0.18286173, 0.19509867, 0.2155385, 0.032844387, 0.14146768, -0.054142196, 0.13201453, 0.10110403, -0.33355132, 0.05952131, 0.1204249, 0.068150505, -0.07007148, 0.12301588, -0.16395387, -0.024232972, 0.050441828, 0.10782156, -0.10878187, -0.20940576, -0.21719487, -0.17341727, -0.08849979, 0.25048837, 0.11870724, 0.0043683643, -0.101252936, -0.052565195, -0.10135362, -0.15046376, 0.013909307, 0.19944441, -0.14593935, -0.09639356, -0.13981205, -0.105924524},
    {-0.08015378, 0.021739576, -0.06622401, -0.11590531, -0.09131481, 0.11277371, -0.12908521, 0.10060276, 0.08169046, 0.097300015, 0.12290649, 0.093461454, -0.15175866, 0.16901104, -0.041544233, 0.108204395, 0.09855253, 0.13938786, -0.08499031, -0.19800122, -0.089923576, 0.07488123, -0.1315711, 0.0587399, 0.21326874, 0.013666484, -0.13800615, 0.31727913, -0.28083077, 0.14838989, 0.16775097, 0.12982242, 0.0010037071, 0.23714879, 0.018074032, -0.0033127586, 0.09336475, -0.20144024, 0.27314413, 0.08800902, -0.023769, -0.08368826, -0.15664355, -0.034623202, 0.20062406, 0.06592534, -0.086194985, 0.18042697, -0.1823035, -0.109827615, 0.41871333, 0.0922468, 0.22472931, 0.00089025265, -0.15028453, 0.0136951255, -0.1341323, -0.025207458, 0.22493418, 0.07156956, 0.059543114, -0.19011682, 0.022893323, 0.12215159},
    {0.032496147, 0.04893201, -0.039482925, -0.14109625, 0.029551366, 0.01711469, 0.045003172, 0.2604046, 0.118819356, 0.0008724095, 0.03255506, -0.068925865, -0.06222095, 0.13989152, 0.08515774, -0.11045787, 0.019254873, 0.24776019, -0.007379543, -0.05710459, 0.27434644, 0.12117001, -0.33418864, 0.16782439, 0.055751614, -0.14838743, -0.12237755, 0.15523797, -0.1063778, 0.11872784, 0.08726769, -0.052884024, 0.13738139, 0.2496644, -0.06641738, 0.08905933, 0.028973121, -0.03671747, 0.0891486, -0.04567678, -0.12571044, -0.03452396, -0.17914139, 0.30442965, 0.12769245, -0.06817236, -0.2970018, -0.008055493, -0.021549128, -0.20328492, 0.033594083, -0.23738852, 0.19601168, 0.18255945, 0.10090727, 0.27178618, -0.059448157, -0.04783737, 0.272447, 0.048256125, -0.055818964, -0.113861434, -0.121030375, -0.022787109},
    {-0.33007133, 0.20093322, -0.25084868, 0.09263458, 0.21824643, 0.11368988, -0.032874208, 0.038116165, -0.14394793, 0.24353169, 0.22375429, 0.35647294, -0.12290786, 0.27984518, 0.24429072, 0.10701681, 0.21658495, 0.13523486, 0.156088, -0.09183929, -0.2694529, -0.082284756, 0.14448237, 0.12631541, 0.21633895, -0.20672527, -0.11070428, 0.05504739, -0.35209474, 0.24809988, -0.13826762, -0.159338, 0.06914647, 0.1500893, 0.28953913, -0.08678263, -0.33339193, -0.24893142, 0.12399041, -0.12549219, -0.2311808, -0.20776623, -0.15548202, -0.02956548, 0.14424323, 0.3285855, -0.18188563, -0.061392996, -0.3401394, -0.32670254, -0.34700668, 0.19584967, 0.16846187, -0.1901778, -0.097717635, -0.2657918, -0.18046731, -0.007058027, -0.019631177, 0.28187677, -0.2316417, -0.072170325, -0.21620385, -0.16358347},
    {-0.0075208736, 0.13456245, -0.18393615, 0.07535883, 0.13691603, 0.12488748, 0.020851823, -0.09531272, -0.12198579, 0.22480698, -0.029407373, 0.10916272, -0.12896037, 0.12463239, 0.013961907, -0.082294226, -0.018181121, -0.12687641, -0.009079903, -0.036724158, -0.077921614, -0.052641027, 0.07138597, 0.098004244, -0.009633932, -0.19590653, 0.004655512, -0.007238144, -0.17502597, -0.02954402, 0.19974849, -0.07382831, -0.10726285, -0.07813913, 0.20969974, 0.14562623, -0.18828563, 0.015827864, 0.06883448, 0.021202648, -0.08117436, 0.06910868, -0.19325228, 0.038615473, 0.006194893, 0.03187296, -0.0061455527, 0.101551, -0.05395596, -0.094113894, -0.02992453, 0.24317954, 0.108409025, 0.08486374, -0.13106872, -0.16872637, 0.030856466, 0.08933014, -0.0019092524, 0.12679282, 0.006030832, -0.16280447, -0.032840125, 0.035437457},
    {0.07464689, -0.012837076, -0.019278005, -0.08218091, 0.14153318, -0.13952062, 0.025330046, -0.08991452, 0.07491708, 0.06661123, 0.09019066, -0.010052637, -0.03461568, 0.011960479, -0.06539808, -0.11298197, 0.143625, 0.12951034, 0.0890766, 0.032612767, -0.2734463, -0.025674129, 0.07371841, 0.010429772, -0.030080907, -0.008103186, -0.11836942, 0.043181777, -0.10300104, 0.0027281977, -0.142533, -0.05993477, -0.10797945, 0.098855086, -0.043208282, -0.015596048, -0.009645795, 0.053333435, -0.03814784, 0.06567728, 0.09553626, -0.026182776, 0.011708043, 0.11062676, -0.11000672, 8.138224e-05, -0.031932015, -0.0813621, -0.000511384, -0.052190155, -0.10030789, 0.09579878, -0.062135525, -0.021485249, 0.028240088, 0.095940284, 0.03259911, -0.14950846, 0.13702786, -0.023636023, -0.10674427, -0.20626423, -0.16116846, -0.068400204},
    {-0.006696953, 0.12248996, 0.04991369, 0.08138733, -0.046904445, 0.20288241, 0.111811996, 0.2799745, 0.10757397, 0.0109148435, 0.23238248, 0.09039193, -0.14847238, 0.30322987, 0.08876201, -0.17893554, -0.1355443, 0.07670601, -0.08274418, 0.03204877, 0.025170503, -0.120896034, -0.05340199, 0.07362334, 0.106505856, -0.031155549, 0.026261682, -0.02176313, -0.06382218, 0.14953409, 0.16813776, 0.039446585, 0.09216992, 0.04829682, 0.039344817, -0.058327593, 0.0573267, -0.0337321, 0.061116427, -0.025166733, -0.10800101, -0.04746219, -0.17247342, 0.09185205, 0.12935373, -0.16802011, -0.29099613, -0.059795737, 0.05874567, -0.186965, -0.1492504, -0.13819666, 0.22198309, 0.13033023, -0.10518465, -0.020616792, -0.006293623, 0.036813132, 0.17406352, 0.20288745, 0.12366294, 0.19970062, -0.18428867, -0.14930111},
    {0.03648001, 0.07307991, 0.032333545, 0.087410085, -0.13343856, -0.108173445, 0.10576412, -0.047455847, -0.123050734, -0.118135385, -0.059394248, 0.05306269, -0.08983088, 0.07218238, 0.044805285, 0.07160522, -0.092634656, 0.17862612, -0.043650016, -0.12428854, 0.045922093, 0.0853367, 0.085245326, 0.061892066, 0.067782804, -0.084466405, -0.02247371, 0.114697576, -0.06312643, 0.005524711, 0.052587174, -0.16926353, 0.060335174, 0.1357683, -0.052748963, 0.07884987, 0.009998319, 0.026414573, 0.08564758, -0.07271986, 0.055368144, -0.10598128, 0.008248484, -0.04035776, -0.04546792, -0.052919686, 0.08260544, -0.06805956, -0.15133844, -0.184724, -0.010181963, -0.09034862, -0.08059724, -0.03666409, -0.053192604, -0.041027002, 0.0134848915, 0.027119586, -0.041396495, 0.14073586, -0.047184847, -0.027609035, -0.12696435, -0.0034071102},
